{"learner":{"attributes":{"best_iteration":"49","best_ntree_limit":"50","scikit_learn":"{\"n_estimators\": 50, \"objective\": \"reg:squarederror\", \"max_depth\": null, \"learning_rate\": 0.1, \"verbosity\": null, \"booster\": null, \"tree_method\": null, \"gamma\": null, \"min_child_weight\": 1, \"max_delta_step\": null, \"subsample\": null, \"colsample_bytree\": 1, \"colsample_bylevel\": null, \"colsample_bynode\": null, \"reg_alpha\": null, \"reg_lambda\": null, \"scale_pos_weight\": null, \"base_score\": null, \"missing\": NaN, \"num_parallel_tree\": null, \"random_state\": null, \"n_jobs\": null, \"monotone_constraints\": null, \"interaction_constraints\": null, \"importance_type\": null, \"gpu_id\": null, \"validate_parameters\": null, \"predictor\": null, \"enable_categorical\": false, \"evals_result_\": {\"validation_0\": {\"rmse\": [16.470861, 14.948343, 13.571284, 12.340622, 11.227362, 10.230639, 9.337755, 8.535542, 7.803712, 7.147739, 6.556738, 6.027464, 5.5533, 5.127244, 4.729523, 4.377597, 4.055648, 3.775364, 3.52291, 3.293578, 3.091966, 2.907275, 2.734965, 2.582095, 2.438795, 2.335153, 2.222879, 2.131756, 2.046797, 1.977219, 1.897303, 1.834431, 1.774272, 1.713566, 1.651446, 1.594754, 1.553827, 1.52756, 1.505654, 1.46832, 1.451485, 1.413716, 1.386248, 1.373293, 1.343822, 1.33195, 1.306531, 1.298472, 1.269633, 1.259901]}, \"validation_1\": {\"rmse\": [16.438887, 14.95433, 13.598626, 12.388251, 11.324443, 10.361367, 9.523594, 8.765731, 8.096355, 7.496817, 6.959726, 6.493021, 6.0864, 5.744057, 5.392433, 5.160752, 4.907044, 4.702647, 4.515318, 4.328641, 4.201338, 4.073929, 3.98058, 3.883799, 3.807142, 3.769392, 3.72118, 3.65153, 3.611914, 3.597393, 3.575379, 3.563367, 3.542381, 3.531956, 3.528552, 3.528686, 3.527357, 3.522143, 3.518902, 3.529177, 3.51697, 3.527515, 3.529, 3.527167, 3.509194, 3.510153, 3.513509, 3.51153, 3.497867, 3.499265]}}, \"_estimator_type\": \"regressor\"}"},"feature_names":["TF current","PF1 charging voltage","PF1_2 charging voltage","PF6 charging voltage","PF9 charging voltage","LFS gas injection t0","LFS gas injection dt","HFS gas injection t0","HFS gas injection dt","ECH 2.45 GHz","ECH 7.88 GHz","NBI t0","NBI dt","NBI power","wall condition","dIp"],"feature_types":["int","int","int","int","int","int","float","int","float","int","int","int","float","int","float","int"],"gradient_booster":{"model":{"gbtree_model_param":{"num_trees":"50","size_leaf_vector":"0"},"tree_info":[0,0,0,0,0,0,0,0,0,0,0,0,0,0,0,0,0,0,0,0,0,0,0,0,0,0,0,0,0,0,0,0,0,0,0,0,0,0,0,0,0,0,0,0,0,0,0,0,0,0],"trees":[{"base_weights":[1.678961E1,1.8626106E1,1.4090625E1,1.5703448E1,2.3567074E1,1.1861111E1,1.671831E1,8.525E0,1.6718254E1,3.125E0,2.4303797E1,1.019E1,1.3609756E1,2.3525E1,1.3778846E1,1.34375E1,4.8461537E0,1.7477272E1,1.0823529E1,1.8475E1,2.5841667E1,3.25E0,1.7577982E1,1.275E1,7.0625E0,2.6101694E1,5.25E0,2.6318966E1,6.75E0],"categories":[],"categories_nodes":[],"categories_segments":[],"categories_sizes":[],"default_left":[true,true,true,true,true,true,true,true,true,false,true,false,false,false,false,false,false,false,true,false,true,false,false,false,false,true,false,false,false],"id":0,"left_children":[1,3,5,7,9,11,13,15,17,-1,19,-1,-1,-1,-1,-1,-1,21,23,-1,25,-1,-1,-1,-1,27,-1,-1,-1],"loss_changes":[1.6458672E3,2.8935234E3,7.3905664E2,9.137656E2,1.1589883E3,1.243125E2,1.0964199E3,2.9632642E2,3.7458594E2,0E0,2.3072266E2,0E0,0E0,0E0,0E0,0E0,0E0,1.0048047E2,3.312683E1,0E0,1.8423047E2,0E0,0E0,0E0,0E0,7.041797E1,0E0,0E0,0E0],"parents":[2147483647,0,0,1,1,2,2,3,3,4,4,5,5,6,6,7,7,8,8,10,10,17,17,18,18,20,20,25,25],"right_children":[2,4,6,8,10,12,14,16,18,-1,20,-1,-1,-1,-1,-1,-1,22,24,-1,26,-1,-1,-1,-1,28,-1,-1,-1],"split_conditions":[3.6E3,1.6368766E0,1E3,4.65E1,3.55E1,1.115E2,4.1350085E-1,8.5E2,8.5E-1,3.125E-1,-2.9905E3,1.0189999E0,1.3609756E0,2.3525E0,1.3778846E0,1.34375E0,4.846154E-1,1.7300177E-1,7.75E2,1.8475001E0,2.25E0,3.2500002E-1,1.7577982E0,1.275E0,7.0625E-1,4.65E2,5.2500004E-1,2.6318967E0,6.75E-1],"split_indices":[1,14,2,15,15,15,14,3,6,0,11,0,0,0,0,0,0,14,3,0,8,0,0,0,0,7,0,0,0],"split_type":[0,0,0,0,0,0,0,0,0,0,0,0,0,0,0,0,0,0,0,0,0,0,0,0,0,0,0,0,0],"sum_hessian":[3.84E2,2.25E2,1.59E2,1.44E2,8.1E1,8.9E1,7E1,1.9E1,1.25E2,3E0,7.8E1,4.9E1,4E1,1.9E1,5.1E1,7E0,1.2E1,1.09E2,1.6E1,1.9E1,5.9E1,1E0,1.08E2,9E0,7E0,5.8E1,1E0,5.7E1,1E0],"tree_param":{"num_deleted":"0","num_feature":"16","num_nodes":"29","size_leaf_vector":"0"}},{"base_weights":[1.5157389E1,1.6816082E1,1.2719752E1,1.4173741E1,2.1283438E1,1.0701445E1,1.5099019E1,7.7639184E0,1.5078684E1,2.890625E0,2.1945309E1,9.0258665E0,1.2107956E1,1.2160957E1,2.0701889E1,1.2848214E1,4.667205E0,1.5748481E1,9.85772E0,1.6719875E1,2.3321365E1,2.1228243E1,4.5610576E0,3.0875E0,1.583631E1,1.16025E1,6.444531E0,2.3547575E1,4.9875E0,1.7096498E1,1.4007359E1,2.3732447E1,6.4125E0],"categories":[],"categories_nodes":[],"categories_segments":[],"categories_sizes":[],"default_left":[true,true,true,true,true,true,true,true,true,false,true,false,false,false,true,false,false,false,true,false,true,false,false,false,true,false,false,true,false,false,false,false,false],"id":1,"left_children":[1,3,5,7,9,11,13,15,17,-1,19,-1,-1,-1,21,-1,-1,23,25,-1,27,-1,-1,-1,29,-1,-1,31,-1,-1,-1,-1,-1],"loss_changes":[1.3427734E3,2.3661016E3,6.067539E2,7.2400586E2,9.348047E2,1.0282031E2,9.170166E2,2.5492688E2,2.85375E2,0E0,1.7811719E2,0E0,0E0,0E0,9.858008E1,0E0,0E0,7.3427734E1,2.6466797E1,0E0,1.3139453E2,0E0,0E0,0E0,1.1748047E1,0E0,0E0,3.4714844E1,0E0,0E0,0E0,0E0,0E0],"parents":[2147483647,0,0,1,1,2,2,3,3,4,4,5,5,6,6,7,7,8,8,10,10,14,14,17,17,18,18,20,20,24,24,27,27],"right_children":[2,4,6,8,10,12,14,16,18,-1,20,-1,-1,-1,22,-1,-1,24,26,-1,28,-1,-1,-1,30,-1,-1,32,-1,-1,-1,-1,-1],"split_conditions":[3.6E3,1.6368766E0,1E3,4.65E1,3.55E1,1.08E2,4.125E2,7E2,8.5E-1,2.890625E-1,-2.9905E3,9.0258664E-1,1.2107956E0,1.2160958E0,4.6044537E-1,1.2848214E0,4.667205E-1,1.7300177E-1,7.75E2,1.6719875E0,2.25E0,2.1228244E0,4.5610577E-1,3.0875E-1,1.025E3,1.1602501E0,6.444531E-1,4.65E2,4.9875003E-1,1.7096499E0,1.4007359E0,2.3732448E0,6.4125E-1],"split_indices":[1,14,2,15,15,15,0,3,6,0,11,0,0,0,14,0,0,14,3,0,8,0,0,0,4,0,0,7,0,0,0,0,0],"split_type":[0,0,0,0,0,0,0,0,0,0,0,0,0,0,0,0,0,0,0,0,0,0,0,0,0,0,0,0,0,0,0,0,0],"sum_hessian":[3.84E2,2.25E2,1.59E2,1.44E2,8.1E1,8.9E1,7E1,1.9E1,1.25E2,3E0,7.8E1,4.4E1,4.5E1,4.8E1,2.2E1,6E0,1.3E1,1.09E2,1.6E1,1.9E1,5.9E1,2.1E1,1E0,1E0,1.08E2,9E0,7E0,5.8E1,1E0,5.9E1,4.9E1,5.7E1,1E0],"tree_param":{"num_deleted":"0","num_feature":"16","num_nodes":"33","size_leaf_vector":"0"}},{"base_weights":[1.3689333E1,1.518956E1,1.1484704E1,1.261983E1,1.8932486E1,9.654781E0,1.3642569E1,1.49265E1,9.835111E0,2.6738281E0,1.9462395E1,8.276024E0,1.1100711E1,1.9318779E1,1.1197054E1,5.4427514E0,1.2444267E1,1.53722515E1,2.0863707E1,4.604013E0,1.1368695E1,7.8326874E0,3.9454083E0,6.198249E0,1.3364204E1,2.1050386E1,4.738125E0,1.3901131E1,5.861973E0,2.1226313E1,5.2474294E0],"categories":[],"categories_nodes":[],"categories_segments":[],"categories_sizes":[],"default_left":[true,true,true,true,true,true,true,false,true,false,true,false,false,false,true,true,true,false,true,false,false,false,false,false,true,true,false,false,false,false,false],"id":2,"left_children":[1,3,5,7,9,11,13,-1,15,-1,17,-1,-1,-1,19,21,23,-1,25,-1,-1,-1,-1,-1,27,29,-1,-1,-1,-1,-1],"loss_changes":[1.0989219E3,1.9348125E3,5.0007812E2,7.332051E2,7.2336523E2,8.7552734E1,7.6925586E2,0E0,6.771919E2,0E0,1.7792578E2,0E0,0E0,0E0,6.5039062E0,6.2139282E1,1.4700293E2,0E0,8.690234E1,0E0,0E0,0E0,0E0,0E0,5.546875E1,5.8203125E1,0E0,0E0,0E0,0E0,0E0],"parents":[2147483647,0,0,1,1,2,2,3,3,4,4,5,5,6,6,8,8,10,10,14,14,15,15,16,16,18,18,24,24,25,25],"right_children":[2,4,6,8,10,12,14,-1,16,-1,18,-1,-1,-1,20,22,24,-1,26,-1,-1,-1,-1,-1,28,30,-1,-1,-1,-1,-1],"split_conditions":[3.6E3,1.2015712E0,1E3,9.75E2,3.55E1,1.115E2,4.1350085E-1,1.49265E0,6.1E1,2.6738283E-1,-2.9905E3,8.276024E-1,1.1100711E0,1.931878E0,1.02E2,3.2E2,8.25E2,1.5372251E0,2.25E0,4.604013E-1,1.1368695E0,7.8326875E-1,3.9454085E-1,6.198249E-1,1.5E2,1.03E2,4.738125E-1,1.3901131E0,5.861973E-1,2.1226313E0,5.2474296E-1],"split_indices":[1,14,2,4,15,15,14,0,15,0,11,0,0,0,15,0,3,0,8,0,0,0,0,0,5,15,0,0,0,0,0],"split_type":[0,0,0,0,0,0,0,0,0,0,0,0,0,0,0,0,0,0,0,0,0,0,0,0,0,0,0,0,0,0,0],"sum_hessian":[3.84E2,2.25E2,1.59E2,1.36E2,8.9E1,8.9E1,7E1,7.2E1,6.4E1,3E0,8.6E1,4.9E1,4E1,1.9E1,5.1E1,2.5E1,3.9E1,2.5E1,6.1E1,2E0,4.9E1,8E0,1.7E1,6E0,3.3E1,6E1,1E0,3E1,3E0,5.9E1,1E0],"tree_param":{"num_deleted":"0","num_feature":"16","num_nodes":"31","size_leaf_vector":"0"}},{"base_weights":[1.2361073E1,1.3715703E1,1.0370401E1,1.1555551E1,1.736822E1,8.710834E0,1.2328017E1,6.3125477E0,1.2296062E1,2.473291E0,1.7902542E1,7.464974E0,1.00177145E1,9.867398E0,1.7034206E1,1.0467525E1,3.7841632E0,1.2845676E1,8.01644E0,1.3671123E1,1.9014639E1,8.652762E0,6.3846893E0,1.7466255E1,3.76457E0,1.0770617E0,3.909551E0,8.814814E0,1.3249305E1,9.605514E0,5.5366507E0,1.9184338E1,4.501219E0,6.5392103E0,1.0744253E1,1.0722414E1,4.8022118E0,1.3314232E1,3.4756765E0,1.9343204E1,4.985058E0],"categories":[],"categories_nodes":[],"categories_segments":[],"categories_sizes":[],"default_left":[true,true,true,true,true,true,true,true,true,false,true,true,false,false,true,false,false,false,true,false,true,true,false,false,false,false,false,true,true,false,false,true,false,false,false,false,false,false,false,false,false],"id":3,"left_children":[1,3,5,7,9,11,13,15,17,-1,19,21,-1,-1,23,-1,25,27,29,-1,31,33,-1,-1,-1,-1,-1,35,37,-1,-1,39,-1,-1,-1,-1,-1,-1,-1,-1,-1],"loss_changes":[8.9596094E2,1.5824375E3,4.1241992E2,4.8534375E2,6.08334E2,7.175488E1,6.5410645E2,1.7049677E2,1.9339258E2,0E0,1.11802734E2,8.9123535E0,0E0,0E0,6.610889E1,0E0,5.412903E-1,6.217578E1,1.3807251E1,0E0,6.1421875E1,2.2571045E1,0E0,0E0,0E0,0E0,0E0,4.8016357E1,1.5912109E1,0E0,0E0,3.6664062E1,0E0,0E0,0E0,0E0,0E0,0E0,0E0,0E0,0E0],"parents":[2147483647,0,0,1,1,2,2,3,3,4,4,5,5,6,6,7,7,8,8,10,10,11,11,14,14,16,16,17,17,18,18,20,20,21,21,27,27,28,28,31,31],"right_children":[2,4,6,8,10,12,14,16,18,-1,20,22,-1,-1,24,-1,26,28,30,-1,32,34,-1,-1,-1,-1,-1,36,38,-1,-1,40,-1,-1,-1,-1,-1,-1,-1,-1,-1],"split_conditions":[3.6E3,1.6368766E0,1E3,4.65E1,3.55E1,1.115E2,4.125E2,7E2,8.5E-1,2.473291E-1,-2.9905E3,1.475E3,1.0017715E0,9.867398E-1,4.6044537E-1,1.0467525E0,2.7987766E-1,2.3364131E-1,7.25E2,1.3671123E0,2.25E0,1.265E3,6.384689E-1,1.7466255E0,3.76457E-1,1.0770617E-1,3.909551E-1,1.005E3,1.55E3,9.605514E-1,5.536651E-1,1.03E2,4.5012188E-1,6.5392107E-1,1.0744253E0,1.0722414E0,4.8022118E-1,1.3314232E0,3.4756765E-1,1.9343204E0,4.985058E-1],"split_indices":[1,14,2,15,15,15,0,3,6,0,11,4,0,0,14,0,14,14,3,0,8,4,0,0,0,0,0,4,4,0,0,15,0,0,0,0,0,0,0,0,0],"split_type":[0,0,0,0,0,0,0,0,0,0,0,0,0,0,0,0,0,0,0,0,0,0,0,0,0,0,0,0,0,0,0,0,0,0,0,0,0,0,0,0,0],"sum_hessian":[3.84E2,2.25E2,1.59E2,1.44E2,8.1E1,8.9E1,7E1,1.9E1,1.25E2,3E0,7.8E1,4.9E1,4E1,4.8E1,2.2E1,6E0,1.3E1,1.09E2,1.6E1,1.9E1,5.9E1,2E1,2.9E1,2.1E1,1E0,1E0,1.2E1,1.2E1,9.7E1,8E0,8E0,5.8E1,1E0,1.2E1,8E0,7E0,5E0,9.6E1,1E0,5.7E1,1E0],"tree_param":{"num_deleted":"0","num_feature":"16","num_nodes":"41","size_leaf_vector":"0"}},{"base_weights":[1.1169815E1,1.239187E1,9.373852E0,1.0443382E1,1.5686245E1,7.8771787E0,1.1139017E1,1.2235582E1,8.508123E0,2.287794E0,1.6166088E1,6.927961E0,9.306799E0,8.900796E0,1.5423094E1,4.2699947E0,1.0626523E1,1.2372367E1,1.7161226E1,7.1180067E0,3.4898734E0,1.5799022E1,3.5763416E0,6.2664504E0,3.034545E0,5.0441494E0,1.1303906E1,1.7744614E1,1.0209207E1,2.048445E0,7.175009E0,1.1659892E1,5.0070763E0,4.7792554E0,1.3086857E1],"categories":[],"categories_nodes":[],"categories_segments":[],"categories_sizes":[],"default_left":[true,true,true,true,true,true,true,false,true,false,true,true,false,false,true,true,true,false,true,true,false,false,false,false,false,false,true,false,true,false,false,false,false,false,false],"id":4,"left_children":[1,3,5,7,9,11,13,-1,15,-1,17,19,-1,-1,21,23,25,-1,27,29,-1,-1,-1,-1,-1,-1,31,-1,33,-1,-1,-1,-1,-1,-1],"loss_changes":[7.288242E2,1.2868867E3,3.3495605E2,3.988125E2,4.9020508E2,5.7654785E1,5.435205E2,0E0,6.1002295E2,0E0,8.5921875E1,1.3055908E1,0E0,0E0,4.5928223E1,4.511371E1,1.2448877E2,0E0,6.2185547E1,9.0722656E-1,0E0,0E0,0E0,0E0,0E0,0E0,3.576416E1,0E0,4.683307E1,0E0,0E0,0E0,0E0,0E0,0E0],"parents":[2147483647,0,0,1,1,2,2,3,3,4,4,5,5,6,6,8,8,10,10,11,11,14,14,15,15,16,16,18,18,19,19,26,26,28,28],"right_children":[2,4,6,8,10,12,14,-1,16,-1,18,20,-1,-1,22,24,26,-1,28,30,-1,-1,-1,-1,-1,-1,32,-1,34,-1,-1,-1,-1,-1,-1],"split_conditions":[3.6E3,1.6368766E0,1E3,9.75E2,3.55E1,1.15E2,4.125E2,1.2235583E0,6.1E1,2.2877942E-1,-2.9905E3,1.7E3,9.306799E-1,8.900796E-1,4.6044537E-1,3.2E2,8.25E2,1.2372367E0,3.7E2,8.25E2,3.4898734E-1,1.5799022E0,3.5763416E-1,6.26645E-1,3.034545E-1,5.04415E-1,1.5E2,1.7744614E0,8.95E1,2.048445E-1,7.1750087E-1,1.1659893E0,5.007076E-1,4.7792554E-1,1.3086857E0],"split_indices":[1,14,2,4,15,15,0,0,15,0,11,4,0,0,14,0,3,0,7,3,0,0,0,0,0,0,5,0,15,0,0,0,0,0,0],"split_type":[0,0,0,0,0,0,0,0,0,0,0,0,0,0,0,0,0,0,0,0,0,0,0,0,0,0,0,0,0,0,0,0,0,0,0],"sum_hessian":[3.84E2,2.25E2,1.59E2,1.44E2,8.1E1,8.9E1,7E1,7.2E1,7.2E1,3E0,7.8E1,5.7E1,3.2E1,4.8E1,2.2E1,2.5E1,4.7E1,1.9E1,5.9E1,5.3E1,4E0,2.1E1,1E0,8E0,1.7E1,6E0,4.1E1,5.3E1,6E0,1E0,5.2E1,3.8E1,3E0,3E0,3E0],"tree_param":{"num_deleted":"0","num_feature":"16","num_nodes":"35","size_leaf_vector":"0"}},{"base_weights":[1.0090188E1,1.1194062E1,8.467902E0,9.291258E0,1.3966174E1,7.113928E0,1.006494E1,1.1028785E1,7.1969395E0,2.1162095E0,1.435047E1,5.9805026E0,8.068063E0,1.4395778E1,8.205677E0,8.478119E0,1.1651699E1,3.8787684E0,9.173827E0,1.1414646E1,1.5350162E1,7.8750086E0,5.214215E0,3.045866E0,8.351152E0,6.7212787E0,1.20032835E1,5.7094326E0,2.7479491E0,4.6117935E0,9.843251E0,1.5476413E1,3.8244362E0,1.0198205E1,4.631545E0,1.559978E1,4.037195E0],"categories":[],"categories_nodes":[],"categories_segments":[],"categories_sizes":[],"default_left":[true,true,true,true,true,true,true,true,true,false,true,true,false,false,true,false,true,true,true,false,true,false,false,false,false,false,false,false,false,false,true,true,false,false,false,false,false],"id":5,"left_children":[1,3,5,7,9,11,13,15,17,-1,19,21,-1,-1,23,-1,25,27,29,-1,31,-1,-1,-1,-1,-1,-1,-1,-1,-1,33,35,-1,-1,-1,-1,-1],"loss_changes":[5.9466797E2,1.0623379E3,2.74375E2,4.1916016E2,3.7948242E2,4.9078613E1,4.5357666E2,1.7202148E1,3.907942E2,0E0,8.012109E1,2.4266235E1,0E0,0E0,1.3595947E1,0E0,1.6396484E1,3.8134644E1,7.676221E1,0E0,3.1030273E1,0E0,0E0,0E0,0E0,0E0,0E0,0E0,0E0,0E0,1.5663818E1,2.3104492E1,0E0,0E0,0E0,0E0,0E0],"parents":[2147483647,0,0,1,1,2,2,3,3,4,4,5,5,6,6,7,7,8,8,10,10,11,11,14,14,16,16,17,17,18,18,20,20,30,30,31,31],"right_children":[2,4,6,8,10,12,14,16,18,-1,20,22,-1,-1,24,-1,26,28,30,-1,32,-1,-1,-1,-1,-1,-1,-1,-1,-1,34,36,-1,-1,-1,-1,-1],"split_conditions":[3.6E3,1.2015712E0,1E3,9.75E2,3.55E1,1.08E2,4.1350085E-1,2.0818707E-1,6.1E1,2.1162096E-1,-2.9905E3,3E-1,8.0680627E-1,1.4395778E0,1.02E2,8.478119E-1,8.35E2,3.2E2,8.25E2,1.1414646E0,4.65E2,7.8750086E-1,5.214215E-1,3.0458662E-1,8.3511525E-1,6.721279E-1,1.2003284E0,5.709433E-1,2.747949E-1,4.6117935E-1,1.5E2,2.25E0,3.8244364E-1,1.0198206E0,4.6315452E-1,1.559978E0,4.037195E-1],"split_indices":[1,14,2,4,15,15,14,14,15,0,11,6,0,0,15,0,4,0,3,0,7,0,0,0,0,0,0,0,0,0,5,8,0,0,0,0,0],"split_type":[0,0,0,0,0,0,0,0,0,0,0,0,0,0,0,0,0,0,0,0,0,0,0,0,0,0,0,0,0,0,0,0,0,0,0,0,0],"sum_hessian":[3.84E2,2.25E2,1.59E2,1.36E2,8.9E1,8.9E1,7E1,7.2E1,6.4E1,3E0,8.6E1,4.4E1,4.5E1,1.9E1,5.1E1,1.7E1,5.5E1,2.5E1,3.9E1,2.5E1,6.1E1,1E1,3.4E1,2E0,4.9E1,5E0,5E1,8E0,1.7E1,6E0,3.3E1,6E1,1E0,3E1,3E0,5.9E1,1E0],"tree_param":{"num_deleted":"0","num_feature":"16","num_nodes":"37","size_leaf_vector":"0"}},{"base_weights":[9.117285E0,1.0115406E1,7.6504555E0,8.520257E0,1.2812736E1,9.747345E0,6.692038E0,4.66839E0,9.064044E0,1.9574938E0,1.3200182E1,5.4294157E0,1.1196021E1,4.6186676E0,7.419548E0,7.4852066E0,2.5758572E0,9.469059E0,5.9101815E0,1.4261104E1,1.048903E1,3.2716398E0,1.1836693E1,7.340839E-1,2.6681647E0,6.4775124E0,9.769273E0,7.7540097E0,4.4957523E0,1.5127436E1,9.49931E0,5.226103E0,1.09482765E1,7.8836246E0,3.5231109E0,8.840284E0,1.1123634E1,1.3114209E0,4.6660166E0,9.985291E0,1.5830401E1,5.51734E-1,1.0338894E1],"categories":[],"categories_nodes":[],"categories_segments":[],"categories_sizes":[],"default_left":[true,true,true,true,true,true,true,true,true,false,false,false,true,false,false,false,false,false,true,true,true,false,false,false,false,true,true,false,true,true,false,false,false,false,false,false,false,false,false,false,false,false,false],"id":6,"left_children":[1,3,5,7,9,11,13,15,17,-1,19,-1,21,-1,-1,-1,23,25,27,29,31,-1,-1,-1,-1,33,35,-1,37,39,41,-1,-1,-1,-1,-1,-1,-1,-1,-1,-1,-1,-1],"loss_changes":[4.862793E2,8.632285E2,2.5632227E2,2.6140137E2,3.190381E2,2.3946533E2,1.3618066E2,9.860477E1,1.049834E2,0E0,7.764453E1,0E0,1.389668E2,0E0,0E0,0E0,2.5146484E-1,3.5510742E1,9.475342E0,7.906543E1,5.624756E0,0E0,0E0,0E0,0E0,2.622998E1,2.4966797E1,0E0,3.8703918E-1,9.785156E-1,7.693036E1,0E0,0E0,0E0,0E0,0E0,0E0,0E0,0E0,0E0,0E0,0E0,0E0],"parents":[2147483647,0,0,1,1,2,2,3,3,4,4,5,5,6,6,7,7,8,8,10,10,12,12,16,16,17,17,18,18,19,19,20,20,25,25,26,26,28,28,29,29,30,30],"right_children":[2,4,6,8,10,12,14,16,18,-1,20,-1,22,-1,-1,-1,24,26,28,30,32,-1,-1,-1,-1,34,36,-1,38,40,42,-1,-1,-1,-1,-1,-1,-1,-1,-1,-1,-1,-1],"split_conditions":[3.6E3,1.6368766E0,1.48E3,4.65E1,3.55E1,4.125E2,1.115E2,8.5E2,8.5E-1,1.9574939E-1,5.9069524E0,5.429416E-1,1.23E3,4.6186677E-1,7.419548E-1,7.485207E-1,2.7987766E-1,2.3364131E-1,3.25E2,1.71E3,7.55E1,3.27164E-1,1.1836693E0,7.340839E-2,2.6681647E-1,1.005E3,1.2E3,7.75401E-1,5.65E1,-2.9905E3,3.0488868E0,5.226103E-1,1.0948277E0,7.8836244E-1,3.523111E-1,8.8402843E-1,1.1123635E0,1.311421E-1,4.6660167E-1,9.985291E-1,1.5830401E0,5.5173397E-2,1.0338894E0],"split_indices":[1,14,4,15,15,0,15,3,6,0,14,0,4,0,0,0,14,14,0,4,15,0,0,0,0,4,2,0,15,11,14,0,0,0,0,0,0,0,0,0,0,0,0],"split_type":[0,0,0,0,0,0,0,0,0,0,0,0,0,0,0,0,0,0,0,0,0,0,0,0,0,0,0,0,0,0,0,0,0,0,0,0,0,0,0,0,0,0,0],"sum_hessian":[3.84E2,2.25E2,1.59E2,1.44E2,8.1E1,4.7E1,1.12E2,1.9E1,1.25E2,3E0,7.8E1,1.3E1,3.4E1,3.1E1,8.1E1,7E0,1.2E1,1.09E2,1.6E1,5.3E1,2.5E1,3E0,3.1E1,1E0,1.1E1,1.2E1,9.7E1,5E0,1.1E1,4.3E1,1E1,3E0,2.2E1,7E0,5E0,6.2E1,3.5E1,1E0,1E1,7E0,3.6E1,1E0,9E0],"tree_param":{"num_deleted":"0","num_feature":"16","num_nodes":"43","size_leaf_vector":"0"}},{"base_weights":[8.242804E0,9.152904E0,6.90577E0,7.5930634E0,1.1425629E1,8.815397E0,6.033488E0,9.032937E0,5.8591585E0,1.8106818E0,1.1736365E1,4.925256E0,1.0119585E1,4.171234E0,6.6866417E0,6.422761E0,9.39244E0,3.0568237E0,7.534197E0,9.360947E0,1.2543213E1,3.0262668E0,1.0690013E1,5.4425864E0,9.643435E0,4.568339E0,2.1312425E0,3.7895749E0,8.083554E0,1.2657543E1,2.7845283E0,3.1268973E0,1.08331175E1,8.303998E0,3.0376391E0,1.27646265E1,3.1162698E0],"categories":[],"categories_nodes":[],"categories_segments":[],"categories_sizes":[],"default_left":[true,true,true,true,true,true,true,true,true,false,true,false,true,false,false,false,true,true,true,false,true,false,false,false,false,false,false,false,true,true,false,false,false,false,false,false,false],"id":7,"left_children":[1,3,5,7,9,11,13,15,17,-1,19,-1,21,-1,-1,-1,23,25,27,-1,29,-1,31,-1,-1,-1,-1,-1,33,35,-1,-1,-1,-1,-1,-1,-1],"loss_changes":[4.052754E2,7.144336E2,2.1333008E2,2.891089E2,2.4764355E2,1.936853E2,1.0955469E2,8.175293E0,2.8208057E2,0E0,4.9328125E1,0E0,1.09266846E2,0E0,0E0,0E0,8.980957E0,2.663855E1,5.16521E1,0E0,3.392871E1,0E0,7.6000977E-1,0E0,0E0,0E0,0E0,0E0,1.2594971E1,2.2546875E1,0E0,0E0,0E0,0E0,0E0,0E0,0E0],"parents":[2147483647,0,0,1,1,2,2,3,3,4,4,5,5,6,6,7,7,8,8,10,10,12,12,16,16,17,17,18,18,20,20,22,22,28,28,29,29],"right_children":[2,4,6,8,10,12,14,16,18,-1,20,-1,22,-1,-1,-1,24,26,28,-1,30,-1,32,-1,-1,-1,-1,-1,34,36,-1,-1,-1,-1,-1,-1,-1],"split_conditions":[3.6E3,1.2015712E0,1.48E3,9.75E2,3.55E1,4.125E2,1.115E2,1.772044E-1,6.1E1,1.8106818E-1,-2.9905E3,4.9252558E-1,1.23E3,4.171234E-1,6.6866416E-1,6.422761E-1,8.35E2,3.2E2,8.25E2,9.360947E-1,1.03E2,3.026267E-1,2.77396E-1,5.4425865E-1,9.643435E-1,4.568339E-1,2.1312426E-1,3.7895748E-1,1.55E3,4.65E2,2.7845284E-1,3.1268975E-1,1.0833118E0,8.303998E-1,3.0376393E-1,1.2764627E0,3.11627E-1],"split_indices":[1,14,4,4,15,0,15,14,15,0,11,0,4,0,0,0,4,0,3,0,15,0,14,0,0,0,0,0,4,7,0,0,0,0,0,0,0],"split_type":[0,0,0,0,0,0,0,0,0,0,0,0,0,0,0,0,0,0,0,0,0,0,0,0,0,0,0,0,0,0,0,0,0,0,0,0,0],"sum_hessian":[3.84E2,2.25E2,1.59E2,1.36E2,8.9E1,4.7E1,1.12E2,7.2E1,6.4E1,3E0,8.6E1,1.3E1,3.4E1,3.1E1,8.1E1,1.1E1,6.1E1,2.5E1,3.9E1,2.5E1,6.1E1,3E0,3.1E1,5E0,5.6E1,8E0,1.7E1,6E0,3.3E1,6E1,1E0,1E0,3E1,3.1E1,2E0,5.9E1,1E0],"tree_param":{"num_deleted":"0","num_feature":"16","num_nodes":"37","size_leaf_vector":"0"}},{"base_weights":[7.446042E0,8.269993E0,6.235674E0,6.96298E0,1.048032E1,7.9795065E0,5.439748E0,8.159107E0,5.6714687E0,1.6748807E0,1.0793503E1,5.8379254E0,1.0245106E1,3.9671512E0,6.132968E0,7.4101295E0,9.773394E0,2.776909E0,7.121199E0,1.1730614E1,8.432061E0,3.9487395E0,7.0860248E0,1.0557113E1,1.8464761E0,4.3156977E0,2.8232799E0,5.3637614E0,8.64939E0,5.2707653E0,1.1326609E1,4.1622643E0,1.9299586E0,3.4647543E0,7.5610547E0,1.2668069E1,8.14731E0,3.9618897E0,8.842871E0,4.292136E0,1.0990683E1,9.407301E-1,4.4058547E0,5.926967E0,2.7801836E0,9.140679E0,2.9251966E0,1.2266006E0,4.3758974E0,5.5613103E0,8.466049E0,1.3435259E1,8.447474E0,5.065174E0,1.141263E1],"categories":[],"categories_nodes":[],"categories_segments":[],"categories_sizes":[],"default_left":[true,true,true,true,true,true,true,true,true,false,false,true,true,true,false,true,true,true,true,true,true,false,false,true,false,true,false,true,false,false,false,false,false,false,false,true,false,false,false,false,false,false,false,false,false,false,false,false,false,false,false,false,false,false,false],"id":8,"left_children":[1,3,5,7,9,11,13,15,17,-1,19,21,23,25,-1,27,29,31,33,35,37,-1,-1,39,-1,41,-1,43,45,-1,-1,47,-1,-1,49,51,53,-1,-1,-1,-1,-1,-1,-1,-1,-1,-1,-1,-1,-1,-1,-1,-1,-1,-1],"loss_changes":[3.3238477E2,5.799238E2,1.7866748E2,1.7772363E2,2.0805371E2,1.7308398E2,9.102368E1,1.5839844E1,2.8655762E2,0E0,7.590918E1,3.568219E1,3.8156006E1,3.364563E0,0E0,9.0549805E1,8.017114E1,2.247351E1,5.1001465E1,7.818506E1,1.271167E1,0E0,0E0,9.8688965E0,0E0,4.375061E0,0E0,1.6988892E1,6.3253174E1,0E0,0E0,2.7690125E-1,0E0,0E0,2.892749E1,1.926416E1,8.309125E1,0E0,0E0,0E0,0E0,0E0,0E0,0E0,0E0,0E0,0E0,0E0,0E0,0E0,0E0,0E0,0E0,0E0,0E0],"parents":[2147483647,0,0,1,1,2,2,3,3,4,4,5,5,6,6,7,7,8,8,10,10,11,11,12,12,13,13,15,15,16,16,17,17,18,18,19,19,20,20,23,23,25,25,27,27,28,28,31,31,34,34,35,35,36,36],"right_children":[2,4,6,8,10,12,14,16,18,-1,20,22,24,26,-1,28,30,32,34,36,38,-1,-1,40,-1,42,-1,44,46,-1,-1,48,-1,-1,50,52,54,-1,-1,-1,-1,-1,-1,-1,-1,-1,-1,-1,-1,-1,-1,-1,-1,-1,-1],"split_conditions":[3.6E3,1.6368766E0,1.48E3,9.75E2,3.55E1,1E3,1.16E2,1.25E0,6.1E1,1.6748808E-1,5.9069524E0,1.265E3,4.6044537E-1,7.5E-1,6.132968E-1,1.2E3,4.125E2,3.2E2,8.25E2,1.675E3,7.55E1,3.9487395E-1,7.086025E-1,4.1E2,1.846476E-1,9.25E2,2.8232798E-1,7.4E1,1.0604761E0,5.2707654E-1,1.1326609E0,4.6254027E-1,1.9299586E-1,3.4647545E-1,9.4132626E-1,1.25E0,3.8271143E0,3.9618897E-1,8.8428706E-1,4.292136E-1,1.0990683E0,9.407301E-2,4.4058546E-1,5.926967E-1,2.7801836E-1,9.140679E-1,2.9251966E-1,1.2266006E-1,4.3758973E-1,5.5613106E-1,8.4660494E-1,1.3435259E0,8.4474736E-1,5.065174E-1,1.141263E0],"split_indices":[1,14,4,4,15,2,15,8,15,0,14,4,14,6,0,2,0,0,3,4,15,0,0,0,0,3,0,15,14,0,0,14,0,0,14,6,14,0,0,0,0,0,0,0,0,0,0,0,0,0,0,0,0,0,0],"split_type":[0,0,0,0,0,0,0,0,0,0,0,0,0,0,0,0,0,0,0,0,0,0,0,0,0,0,0,0,0,0,0,0,0,0,0,0,0,0,0,0,0,0,0,0,0,0,0,0,0,0,0,0,0,0,0],"sum_hessian":[3.84E2,2.25E2,1.59E2,1.44E2,8.1E1,4.7E1,1.12E2,7.2E1,7.2E1,3E0,7.8E1,2.6E1,2.1E1,3.8E1,7.4E1,5.3E1,1.9E1,2.5E1,4.7E1,5.3E1,2.5E1,1.2E1,1.4E1,2E1,1E0,2.7E1,1.1E1,2.2E1,3.1E1,6E0,1.3E1,8E0,1.7E1,6E0,4.1E1,4E1,1.3E1,3E0,2.2E1,2E0,1.8E1,1E0,2.6E1,1.7E1,5E0,2.8E1,3E0,1E0,7E0,1.5E1,2.6E1,3.2E1,8E0,8E0,5E0],"tree_param":{"num_deleted":"0","num_feature":"16","num_nodes":"55","size_leaf_vector":"0"}},{"base_weights":[6.742399E0,7.4939823E0,5.6386485E0,6.3097124E0,9.496728E0,7.2402306E0,4.9084306E0,7.394389E0,5.138602E0,1.5492647E0,9.778919E0,5.295002E0,9.298455E0,3.3947299E0,5.4392843E0,6.707585E0,8.879041E0,2.5281892E0,6.445521E0,1.0628591E1,7.6381044E0,3.5842404E0,6.424662E0,9.574177E0,1.7541523E0,4.513474E0,2.9009426E0,4.865242E0,7.8221564E0,4.8189855E0,1.0274852E1,3.808288E0,1.7476847E0,3.1677752E0,6.838347E0,1.1454635E1,7.450278E0,3.6647482E0,7.997031E0,2.706903E0,6.788402E0,4.005994E0,9.949459E0,2.9504776E0,8.560507E-1,3.1246994E0,5.7609696E0,8.25813E0,2.705807E0,1.244805E1,7.088947E0,4.002982E0,1.1253667E0,4.9431968E-1,1.7923344E0,4.741371E0,7.519092E0,7.3662987E0,1.2079695E1,4.6149364E0,1.0461577E1],"categories":[],"categories_nodes":[],"categories_segments":[],"categories_sizes":[],"default_left":[true,true,true,true,true,true,true,true,true,false,false,true,true,true,false,true,true,true,true,true,true,false,true,true,false,false,true,true,false,false,true,true,true,false,false,true,false,false,false,false,false,false,false,false,false,false,false,false,false,false,false,false,false,false,false,false,false,false,false,false,false],"id":9,"left_children":[1,3,5,7,9,11,13,15,17,-1,19,21,23,25,-1,27,29,31,33,35,37,-1,39,41,-1,-1,43,45,47,-1,49,51,53,-1,55,57,59,-1,-1,-1,-1,-1,-1,-1,-1,-1,-1,-1,-1,-1,-1,-1,-1,-1,-1,-1,-1,-1,-1,-1,-1],"loss_changes":[2.77125E2,4.7610254E2,1.5158252E2,1.4619336E2,1.6875195E2,1.4294312E2,7.233667E1,1.4878662E1,2.327511E2,0E0,6.2518066E1,2.91521E1,2.896814E1,4.584198E0,0E0,7.2828125E1,6.3827026E1,1.9321518E1,4.0141724E1,5.6432617E1,7.772705E0,0E0,1.9089355E0,4.0250244E0,0E0,0E0,6.591797E-3,1.7856873E1,4.903418E1,0E0,8.68689E0,1.9631958E-1,1.2133789E-1,0E0,2.4304443E1,1.5790527E1,7.125336E1,0E0,0E0,0E0,0E0,0E0,0E0,0E0,0E0,0E0,0E0,0E0,0E0,0E0,0E0,0E0,0E0,0E0,0E0,0E0,0E0,0E0,0E0,0E0,0E0],"parents":[2147483647,0,0,1,1,2,2,3,3,4,4,5,5,6,6,7,7,8,8,10,10,11,11,12,12,13,13,15,15,16,16,17,17,18,18,19,19,20,20,22,22,23,23,26,26,27,27,28,28,30,30,31,31,32,32,34,34,35,35,36,36],"right_children":[2,4,6,8,10,12,14,16,18,-1,20,22,24,26,-1,28,30,32,34,36,38,-1,40,42,-1,-1,44,46,48,-1,50,52,54,-1,56,58,60,-1,-1,-1,-1,-1,-1,-1,-1,-1,-1,-1,-1,-1,-1,-1,-1,-1,-1,-1,-1,-1,-1,-1,-1],"split_conditions":[3.6E3,1.6368766E0,1.48E3,9.75E2,3.55E1,1E3,1.115E2,1.25E0,6.1E1,1.5492646E-1,5.9069524E0,1.265E3,4.6044537E-1,3E-1,5.4392844E-1,1.2E3,4.125E2,3.2E2,8.25E2,1.675E3,7.55E1,3.5842404E-1,4.1E2,4.1E2,1.7541523E-1,4.513474E-1,5E-1,1.5E-1,1.0604761E0,4.8189855E-1,9.15E1,5.55E1,2.4E1,3.1677753E-1,9.1428363E-1,-2.9905E3,3.8271143E0,3.6647484E-1,7.997031E-1,2.706903E-1,6.788402E-1,4.005994E-1,9.9494594E-1,2.9504776E-1,8.560508E-2,3.1246993E-1,5.7609695E-1,8.25813E-1,2.705807E-1,1.244805E0,7.0889467E-1,4.002982E-1,1.1253667E-1,4.943197E-2,1.7923345E-1,4.7413713E-1,7.519092E-1,7.366299E-1,1.2079695E0,4.6149364E-1,1.0461577E0],"split_indices":[1,14,4,4,15,2,15,8,15,0,14,4,14,6,0,2,0,0,3,4,15,0,0,0,0,0,9,6,14,0,15,15,15,0,14,11,14,0,0,0,0,0,0,0,0,0,0,0,0,0,0,0,0,0,0,0,0,0,0,0,0],"split_type":[0,0,0,0,0,0,0,0,0,0,0,0,0,0,0,0,0,0,0,0,0,0,0,0,0,0,0,0,0,0,0,0,0,0,0,0,0,0,0,0,0,0,0,0,0,0,0,0,0,0,0,0,0,0,0,0,0,0,0,0,0],"sum_hessian":[3.84E2,2.25E2,1.59E2,1.44E2,8.1E1,4.7E1,1.12E2,7.2E1,7.2E1,3E0,7.8E1,2.6E1,2.1E1,3.1E1,8.1E1,5.3E1,1.9E1,2.5E1,4.7E1,5.3E1,2.5E1,1.2E1,1.4E1,2E1,1E0,7E0,2.4E1,2.2E1,3.1E1,6E0,1.3E1,8E0,1.7E1,6E0,4.1E1,4E1,1.3E1,3E0,2.2E1,2E0,1.2E1,2E0,1.8E1,2.3E1,1E0,9E0,1.3E1,2.8E1,3E0,6E0,7E0,7E0,1E0,1E0,1.6E1,1.2E1,2.9E1,7E0,3.3E1,8E0,5E0],"tree_param":{"num_deleted":"0","num_feature":"16","num_nodes":"61","size_leaf_vector":"0"}},{"base_weights":[6.1090245E0,6.795373E0,5.1013765E0,5.724982E0,8.605267E0,6.576185E0,4.4297643E0,6.7155056E0,4.6560335E0,1.4330697E0,8.8594885E0,4.8139443E0,8.440018E0,3.2365477E0,4.9911733E0,6.073585E0,8.112917E0,2.3038895E0,5.833111E0,9.886718E0,7.127995E0,3.2533872E0,5.8454976E0,8.683214E0,1.6664448E0,3.5174174E0,2.3114722E0,4.4173517E0,7.074203E0,4.4059296E0,9.386916E0,3.484441E0,1.5856198E0,3.2648003E0,6.265153E0,1.0020484E1,1.866746E0,7.5390286E0,5.0464934E-1,1.632904E0,3.576242E0,2.5264428E0,6.16178E0,6.217294E-1,3.6016383E0,2.8434768E0,5.226023E0,7.4607935E0,2.5028718E0,1.0770677E1,5.7467904E0,9.651215E-1,3.6787157E0,4.6960366E-1,1.623644E0,6.5810184E0,2.7378922E0,1.031368E1,4.3635073E0,9.069926E0,5.7447653E0,-1.4391799E0,2.1961539E0,1.4182066E0,3.7195845E0],"categories":[],"categories_nodes":[],"categories_segments":[],"categories_sizes":[],"default_left":[true,true,true,true,true,true,true,true,true,false,true,true,true,true,false,true,true,true,false,true,true,true,true,false,false,true,false,true,false,false,false,false,true,false,true,true,false,false,true,false,false,false,false,false,true,false,false,false,false,false,false,false,false,false,false,false,false,false,false,false,false,false,false,false,false],"id":10,"left_children":[1,3,5,7,9,11,13,15,17,-1,19,21,23,25,-1,27,29,31,33,35,37,39,41,-1,-1,43,-1,45,47,-1,49,51,53,-1,55,57,-1,59,61,-1,-1,-1,-1,-1,63,-1,-1,-1,-1,-1,-1,-1,-1,-1,-1,-1,-1,-1,-1,-1,-1,-1,-1,-1,-1],"loss_changes":[2.3159961E2,3.8856348E2,1.2934863E2,1.2226123E2,1.368169E2,1.170271E2,5.9542725E1,1.6208496E1,1.886731E2,0E0,7.004004E1,2.44469E1,2.1770752E1,2.002777E0,0E0,5.8242554E1,5.3095947E1,1.652182E1,3.280713E1,3.1715332E1,8.603528E1,9.616852E-1,1.7895508E-1,0E0,0E0,4.589325E0,0E0,1.4413116E1,3.7878174E1,0E0,8.62207E0,8.545532E-1,1.373291E-3,0E0,2.6547485E1,3.1291992E1,0E0,3.304724E1,1.3024649E1,0E0,0E0,0E0,0E0,0E0,1.6781006E0,0E0,0E0,0E0,0E0,0E0,0E0,0E0,0E0,0E0,0E0,0E0,0E0,0E0,0E0,0E0,0E0,0E0,0E0,0E0,0E0],"parents":[2147483647,0,0,1,1,2,2,3,3,4,4,5,5,6,6,7,7,8,8,10,10,11,11,12,12,13,13,15,15,16,16,17,17,18,18,19,19,20,20,21,21,22,22,25,25,27,27,28,28,30,30,31,31,32,32,34,34,35,35,37,37,38,38,44,44],"right_children":[2,4,6,8,10,12,14,16,18,-1,20,22,24,26,-1,28,30,32,34,36,38,40,42,-1,-1,44,-1,46,48,-1,50,52,54,-1,56,58,-1,60,62,-1,-1,-1,-1,-1,64,-1,-1,-1,-1,-1,-1,-1,-1,-1,-1,-1,-1,-1,-1,-1,-1,-1,-1,-1,-1],"split_conditions":[3.6E3,1.6368766E0,1.48E3,9.75E2,3.55E1,1E3,1.16E2,1.25E0,6.1E1,1.4330697E-1,1.25E0,1.265E3,4.6044537E-1,7.5E-1,4.9911734E-1,1.2E3,4.125E2,3.2E2,6.6020787E-1,4.65E2,1.2E3,8.95E1,4.1E2,8.683214E-1,1.6664448E-1,9.25E2,2.3114721E-1,1.5E-1,1.0604761E0,4.4059297E-1,3.3095568E-1,4.6254027E-1,2.4E1,3.2648003E-1,1.2E3,1.76E3,1.866746E-1,5.9069524E0,2.25E0,1.6329041E-1,3.576242E-1,2.5264427E-1,6.16178E-1,6.217294E-2,2.275E2,2.8434768E-1,5.226023E-1,7.460794E-1,2.5028718E-1,1.0770677E0,5.746791E-1,9.6512154E-2,3.6787158E-1,4.6960365E-2,1.6236441E-1,6.5810186E-1,2.7378923E-1,1.031368E0,4.3635073E-1,9.069926E-1,5.7447654E-1,-1.43918E-1,2.1961538E-1,1.4182065E-1,3.7195846E-1],"split_indices":[1,14,4,4,15,2,15,8,15,0,8,4,14,6,0,2,0,0,14,7,2,15,0,0,0,3,0,6,14,0,14,14,15,0,2,4,0,14,8,0,0,0,0,0,0,0,0,0,0,0,0,0,0,0,0,0,0,0,0,0,0,0,0,0,0],"split_type":[0,0,0,0,0,0,0,0,0,0,0,0,0,0,0,0,0,0,0,0,0,0,0,0,0,0,0,0,0,0,0,0,0,0,0,0,0,0,0,0,0,0,0,0,0,0,0,0,0,0,0,0,0,0,0,0,0,0,0,0,0,0,0,0,0],"sum_hessian":[3.84E2,2.25E2,1.59E2,1.44E2,8.1E1,4.7E1,1.12E2,7.2E1,7.2E1,3E0,7.8E1,2.6E1,2.1E1,3.8E1,7.4E1,5.3E1,1.9E1,2.5E1,4.7E1,4.6E1,3.2E1,1.2E1,1.4E1,2E1,1E0,2.7E1,1.1E1,2.2E1,3.1E1,6E0,1.3E1,8E0,1.7E1,8E0,3.9E1,4.5E1,1E0,3E1,2E0,3E0,9E0,2E0,1.2E1,1E0,2.6E1,9E0,1.3E1,2.8E1,3E0,8E0,5E0,1E0,7E0,1E0,1.6E1,3.5E1,4E0,4.2E1,3E0,1.4E1,1.6E1,1E0,1E0,2E0,2.4E1],"tree_param":{"num_deleted":"0","num_feature":"16","num_nodes":"65","size_leaf_vector":"0"}},{"base_weights":[5.531664E0,6.1564665E0,4.6145573E0,5.192675E0,7.785653E0,5.969081E0,3.9983475E0,5.9507213E0,4.0195975E0,1.3255894E0,8.014193E0,4.3840218E0,7.643059E0,2.9335878E0,4.498711E0,5.278521E0,7.224102E0,1.7266518E0,5.301654E0,8.933246E0,6.462383E0,2.968119E0,5.3188696E0,7.8562403E0,1.5831225E0,3.1862457E0,2.0995872E0,4.017943E0,5.204597E0,6.0174913E0,3.619601E0,3.7429767E0,8.255347E0,9.2896426E-1,1.8966224E0,5.5896673E0,2.2828317E0,9.055899E0,1.6456122E0,6.832916E0,4.7941685E-1,1.5104362E0,3.2543802E0,3.1600466E0,8.184258E0,5.906429E-1,3.2605033E0,8.604185E-1,2.2613792E0,1.3412933E0,4.103305E0,4.4820557E0,6.7594705E0,3.77977E0,1.3986645E0,4.028279E0,8.729315E-1,1.0468133E1,6.559286E0,2.2462845E0,1.0262557E0,5.720747E0,6.3202E-1,5.975666E0,9.64364E0,8.2234E0,5.2040815E0,-1.3672209E0,2.0863461E0,1.3236595E0,3.3625045E0,2.561179E0,1.1713848E0,2.00597E0,5.970001E-3],"categories":[],"categories_nodes":[],"categories_segments":[],"categories_sizes":[],"default_left":[true,true,true,true,true,true,true,true,true,false,true,true,true,true,true,true,false,true,true,true,true,true,false,true,false,true,true,false,false,true,true,true,false,false,true,true,false,true,false,false,true,false,false,false,false,false,true,false,true,true,false,false,false,false,false,false,false,false,false,false,false,false,false,false,false,false,false,false,false,false,false,false,false,false,false],"id":11,"left_children":[1,3,5,7,9,11,13,15,17,-1,19,21,23,25,27,29,31,33,35,37,39,41,-1,43,-1,45,47,49,-1,51,53,55,57,-1,59,61,-1,63,-1,65,67,-1,-1,-1,-1,-1,69,-1,71,73,-1,-1,-1,-1,-1,-1,-1,-1,-1,-1,-1,-1,-1,-1,-1,-1,-1,-1,-1,-1,-1,-1,-1,-1,-1],"loss_changes":[1.9219922E2,3.1443555E2,1.0968091E2,1.05021484E2,1.1043945E2,9.385364E1,4.700537E1,3.548047E1,1.6722711E2,0E0,5.4939453E1,1.99516E1,1.5983643E1,1.5281372E0,4.5407715E0,5.1772583E1,6.6027466E1,1.3565292E0,2.0279297E1,2.7108398E1,6.988147E1,5.09079E-1,0E0,6.48645E0,0E0,3.4710388E0,4.6011353E-1,5.6920166E0,0E0,1.527417E1,2.1835938E0,3.0342255E0,6.3969727E0,0E0,3.1727524E0,1.8479248E1,0E0,2.565039E1,0E0,2.7415771E1,1.17547455E1,0E0,0E0,0E0,0E0,0E0,8.833313E-1,0E0,2.676773E-1,2.6506996E0,0E0,0E0,0E0,0E0,0E0,0E0,0E0,0E0,0E0,0E0,0E0,0E0,0E0,0E0,0E0,0E0,0E0,0E0,0E0,0E0,0E0,0E0,0E0,0E0,0E0],"parents":[2147483647,0,0,1,1,2,2,3,3,4,4,5,5,6,6,7,7,8,8,10,10,11,11,12,12,13,13,14,14,15,15,16,16,17,17,18,18,19,19,20,20,21,21,23,23,25,25,26,26,27,27,29,29,30,30,31,31,32,32,34,34,35,35,37,37,39,39,40,40,46,46,48,48,49,49],"right_children":[2,4,6,8,10,12,14,16,18,-1,20,22,24,26,28,30,32,34,36,38,40,42,-1,44,-1,46,48,50,-1,52,54,56,58,-1,60,62,-1,64,-1,66,68,-1,-1,-1,-1,-1,70,-1,72,74,-1,-1,-1,-1,-1,-1,-1,-1,-1,-1,-1,-1,-1,-1,-1,-1,-1,-1,-1,-1,-1,-1,-1,-1,-1],"split_conditions":[3.6E3,1.6368766E0,1.48E3,1.125E3,3.55E1,1E3,1.16E2,1.25E0,6.1E1,1.3255894E-1,1.25E0,1.265E3,4.6044537E-1,7.5E-1,-2.992E3,6.65E1,2.4481669E-1,3.1E1,1.5E2,1.02E2,1.2E3,8.95E1,5.31887E-1,4.1E2,1.5831225E-1,9.25E2,9.1E1,3.5282987E-1,5.204597E-1,1.2E3,8.63E2,9.125E2,3.219651E-1,9.2896424E-2,5.45E1,1.55E3,2.2828317E-1,-2.9905E3,1.6456123E-1,5.9069524E0,2.25E0,1.5104362E-1,3.2543802E-1,3.1600466E-1,8.1842583E-1,5.9064295E-2,2.275E2,8.604185E-2,1.7E3,3.5E-1,4.103305E-1,4.4820556E-1,6.7594707E-1,3.7797698E-1,1.3986646E-1,4.028279E-1,8.729315E-2,1.0468134E0,6.559286E-1,2.2462845E-1,1.0262557E-1,5.720747E-1,6.3202E-2,5.975666E-1,9.64364E-1,8.2234E-1,5.2040815E-1,-1.3672209E-1,2.0863461E-1,1.3236596E-1,3.3625045E-1,2.561179E-1,1.1713848E-1,2.00597E-1,5.970001E-4],"split_indices":[1,14,4,4,15,2,15,8,15,0,8,4,14,6,11,15,14,15,5,15,2,15,0,0,0,3,15,14,0,2,3,3,14,0,15,4,0,11,0,14,8,0,0,0,0,0,0,0,4,6,0,0,0,0,0,0,0,0,0,0,0,0,0,0,0,0,0,0,0,0,0,0,0,0,0],"split_type":[0,0,0,0,0,0,0,0,0,0,0,0,0,0,0,0,0,0,0,0,0,0,0,0,0,0,0,0,0,0,0,0,0,0,0,0,0,0,0,0,0,0,0,0,0,0,0,0,0,0,0,0,0,0,0,0,0,0,0,0,0,0,0,0,0,0,0,0,0,0,0,0,0,0,0],"sum_hessian":[3.84E2,2.25E2,1.59E2,1.44E2,8.1E1,4.7E1,1.12E2,8.5E1,5.9E1,3E0,7.8E1,2.6E1,2.1E1,3.8E1,7.4E1,5.9E1,2.6E1,2.2E1,3.7E1,4.6E1,3.2E1,1.2E1,1.4E1,2E1,1E0,2.7E1,1.1E1,4.8E1,2.6E1,3.9E1,2E1,7E0,1.9E1,5E0,1.7E1,3.3E1,4E0,4.5E1,1E0,3E1,2E0,3E0,9E0,2E0,1.8E1,1E0,2.6E1,2E0,9E0,2E0,4.6E1,1.5E1,2.4E1,1.8E1,2E0,6E0,1E0,6E0,1.3E1,1.1E1,6E0,3.2E1,1E0,9E0,3.6E1,1.4E1,1.6E1,1E0,1E0,2E0,2.4E1,6E0,3E0,1E0,1E0],"tree_param":{"num_deleted":"0","num_feature":"16","num_nodes":"75","size_leaf_vector":"0"}},{"base_weights":[5.011776E0,5.577954E0,4.1807265E0,4.5871606E0,6.87187E0,5.4201126E0,3.6172643E0,5.4002404E0,2.9673343E0,1.3700874E0,7.0961857E0,3.9829667E0,6.937514E0,2.5219145E0,4.000605E0,4.7780356E0,6.582909E0,1.5552766E0,4.091252E0,7.719304E0,5.860841E0,2.7079597E0,4.822442E0,8.203543E0,4.925708E0,3.4988623E0,2.1084146E0,5.5920725E0,3.4984457E0,3.4299438E0,7.51495E0,1.6149145E0,1.5144014E-1,4.391262E0,-1.5544996E0,7.8094244E0,1.2912269E0,6.174639E0,4.5544624E-1,1.3971536E0,2.961486E0,2.003422E0,5.102028E0,3.418243E0,6.709211E0,3.9284365E0,6.396565E0,2.2923203E0,3.9071505E0,3.6829972E0,8.2928467E-1,1.0280887E1,6.18091E0,8.515505E-1,1.8002439E0,2.064047E0,4.753503E0,6.4399705E0,8.909588E0,7.271779E0,4.7142854E0,-1.2988596E0,1.982029E0],"categories":[],"categories_nodes":[],"categories_segments":[],"categories_sizes":[],"default_left":[true,true,true,true,true,true,true,true,true,false,true,true,true,true,false,true,false,true,true,true,true,true,true,false,true,false,false,true,true,true,true,true,false,true,false,false,false,false,true,false,false,false,false,false,false,false,false,false,false,false,false,false,false,false,false,false,false,false,false,false,false,false,false],"id":12,"left_children":[1,3,5,7,9,11,13,15,17,-1,19,21,23,25,-1,27,29,31,33,35,37,39,41,-1,43,-1,-1,45,47,49,51,53,-1,55,-1,57,-1,59,61,-1,-1,-1,-1,-1,-1,-1,-1,-1,-1,-1,-1,-1,-1,-1,-1,-1,-1,-1,-1,-1,-1,-1,-1],"loss_changes":[1.5783105E2,2.5821045E2,9.2129395E1,1.5650903E2,1.0875488E2,7.704297E1,3.7358643E1,3.183081E1,6.6640656E1,0E0,2.557666E1,1.5840118E1,1.56258545E1,5.5499115E0,0E0,4.293445E1,5.3568848E1,1.5973167E0,4.9170837E1,2.3515625E1,5.655493E1,1.8255615E-1,1.6008911E0,0E0,6.6405334E0,0E0,0E0,2.1714844E1,3.86026E0,2.2105942E0,1.0252075E1,1.4379501E0,0E0,1.0420837E1,0E0,2.85E1,0E0,1.8591675E1,1.0608657E1,0E0,0E0,0E0,0E0,0E0,0E0,0E0,0E0,0E0,0E0,0E0,0E0,0E0,0E0,0E0,0E0,0E0,0E0,0E0,0E0,0E0,0E0,0E0,0E0],"parents":[2147483647,0,0,1,1,2,2,3,3,4,4,5,5,6,6,7,7,8,8,10,10,11,11,12,12,13,13,15,15,16,16,17,17,18,18,19,19,20,20,21,21,22,22,24,24,27,27,28,28,29,29,30,30,31,31,33,33,35,35,37,37,38,38],"right_children":[2,4,6,8,10,12,14,16,18,-1,20,22,24,26,-1,28,30,32,34,36,38,40,42,-1,44,-1,-1,46,48,50,52,54,-1,56,-1,58,-1,60,62,-1,-1,-1,-1,-1,-1,-1,-1,-1,-1,-1,-1,-1,-1,-1,-1,-1,-1,-1,-1,-1,-1,-1,-1],"split_conditions":[3.6E3,1.069124E0,1.48E3,1.125E3,4.65E1,1E3,1.115E2,1.25E0,6.1E1,1.3700874E-1,1.25E0,1.265E3,9.1E2,3E-1,4.000605E-1,3.25E2,2.4481669E-1,1.0381613E0,1.0634055E0,4.65E2,1.2E3,8.95E1,4.1E2,8.203543E-1,1.4225E3,3.4988624E-1,2.1084146E-1,1.2E3,2.5670487E-1,9.125E2,9.4E2,3.1E1,1.5144015E-2,1.0925E3,-1.5544997E-1,3.0432465E0,1.2912269E-1,5.9069524E0,2.25E0,1.3971536E-1,2.9614863E-1,2.0034221E-1,5.102028E-1,3.418243E-1,6.709211E-1,3.9284366E-1,6.396565E-1,2.2923203E-1,3.9071506E-1,3.6829972E-1,8.292847E-2,1.0280887E0,6.1809105E-1,8.5155055E-2,1.8002439E-1,2.0640472E-1,4.753503E-1,6.439971E-1,8.909588E-1,7.271779E-1,4.7142854E-1,-1.2988596E-1,1.982029E-1],"split_indices":[1,14,4,4,15,2,15,8,15,0,8,4,3,6,0,0,14,14,14,7,2,15,0,0,4,0,0,2,14,3,4,15,0,3,0,14,0,14,8,0,0,0,0,0,0,0,0,0,0,0,0,0,0,0,0,0,0,0,0,0,0,0,0],"split_type":[0,0,0,0,0,0,0,0,0,0,0,0,0,0,0,0,0,0,0,0,0,0,0,0,0,0,0,0,0,0,0,0,0,0,0,0,0,0,0,0,0,0,0,0,0,0,0,0,0,0,0,0,0,0,0,0,0,0,0,0,0,0,0],"sum_hessian":[3.84E2,2.25E2,1.59E2,1.3E2,9.5E1,4.7E1,1.12E2,8.5E1,4.5E1,4E0,9.1E1,2.6E1,2.1E1,3.1E1,8.1E1,5.9E1,2.6E1,2.1E1,2.4E1,5.7E1,3.4E1,1.2E1,1.4E1,1.1E1,1E1,7E0,2.4E1,3.4E1,2.5E1,7E0,1.9E1,2E1,1E0,2.3E1,1E0,5.6E1,1E0,3.2E1,2E0,3E0,9E0,2E0,1.2E1,7E0,3E0,1.3E1,2.1E1,8E0,1.7E1,6E0,1E0,4E0,1.5E1,5E0,1.5E1,4E0,1.9E1,2.8E1,2.8E1,1.6E1,1.6E1,1E0,1E0],"tree_param":{"num_deleted":"0","num_feature":"16","num_nodes":"63","size_leaf_vector":"0"}},{"base_weights":[4.540637E0,5.053895E0,3.7872808E0,4.265876E0,6.385711E0,4.9401746E0,3.2640402E0,4.9038196E0,3.280392E0,1.1234137E0,6.571325E0,3.6271298E0,6.327085E0,2.4011817E0,3.6692064E0,4.327773E0,6.0023E0,1.4297196E0,4.3142095E0,7.206994E0,4.998346E0,2.4706917E0,4.3875675E0,7.597134E0,4.6356163E0,3.1927118E0,2.1282623E0,3.3966262E0,4.946343E0,4.939587E0,2.9563286E0,3.143353E0,6.8457637E0,1.9544424E0,1.129556E0,4.545103E0,1.8812921E0,7.8147216E0,4.9124346E0,2.2151573E0,5.265059E0,1.8698606E0,4.6310716E0,1.8332105E0,5.3660617E0,1.506852E0,2.527867E0,1.0075216E0,3.4564784E0,5.084092E0,1.4626619E0,2.1092927E0,3.5346074E0,3.367312E0,7.8782034E-1,8.865359E0,5.346983E0,6.142807E-2,1.1924747E0,4.660849E0,3.6274385E-1,8.478732E0,4.511715E0,2.6257944E0,7.5236554E0,2.498499E0,5.555118E0,2.5822296E0,5.254754E0,2.1319058E0,4.6856213E-1,9.363909E-1,5.8027215E0,6.1322E-1,2.6044216E0,1.7056413E0,-1.9435883E-1],"categories":[],"categories_nodes":[],"categories_segments":[],"categories_sizes":[],"default_left":[true,true,true,true,true,true,true,true,true,false,false,true,true,true,true,true,false,true,true,true,true,false,true,false,false,false,true,false,false,true,true,true,false,false,true,true,false,true,false,false,false,false,true,true,true,false,true,true,false,false,false,false,false,false,false,false,false,false,false,false,false,false,false,false,false,false,false,false,false,false,false,false,false,false,false,false,false],"id":13,"left_children":[1,3,5,7,9,11,13,15,17,-1,19,21,23,25,27,29,31,33,35,37,39,-1,41,-1,43,-1,45,47,-1,49,51,53,55,-1,57,59,-1,61,63,-1,65,-1,67,69,71,-1,73,75,-1,-1,-1,-1,-1,-1,-1,-1,-1,-1,-1,-1,-1,-1,-1,-1,-1,-1,-1,-1,-1,-1,-1,-1,-1,-1,-1,-1,-1],"loss_changes":[1.2972607E2,2.099458E2,8.0393555E1,7.507251E1,7.2711426E1,6.44624E1,3.0694458E1,2.8442139E1,1.0862738E2,0E0,4.296875E1,1.2903473E1,1.2044006E1,1.6300049E0,9.30835E0,3.574109E1,4.35896E1,1.4149094E0,1.2795654E1,3.691211E1,7.637207E0,0E0,5.366211E-1,0E0,1.4726929E1,0E0,4.1370697E0,5.8120728E0,0E0,1.2661011E1,2.8307495E0,1.5675049E0,1.3135681E1,0E0,1.0692387E0,1.4768372E1,0E0,5.16687E1,6.383734E1,0E0,4.5772705E0,0E0,3.0427551E0,6.3152695E-1,1.1974731E1,0E0,1.0412598E0,2.8486753E0,0E0,0E0,0E0,0E0,0E0,0E0,0E0,0E0,0E0,0E0,0E0,0E0,0E0,0E0,0E0,0E0,0E0,0E0,0E0,0E0,0E0,0E0,0E0,0E0,0E0,0E0,0E0,0E0,0E0],"parents":[2147483647,0,0,1,1,2,2,3,3,4,4,5,5,6,6,7,7,8,8,10,10,11,11,12,12,13,13,14,14,15,15,16,16,17,17,18,18,19,19,20,20,22,22,24,24,26,26,27,27,29,29,30,30,31,31,32,32,34,34,35,35,37,37,38,38,40,40,42,42,43,43,44,44,46,46,47,47],"right_children":[2,4,6,8,10,12,14,16,18,-1,20,22,24,26,28,30,32,34,36,38,40,-1,42,-1,44,-1,46,48,-1,50,52,54,56,-1,58,60,-1,62,64,-1,66,-1,68,70,72,-1,74,76,-1,-1,-1,-1,-1,-1,-1,-1,-1,-1,-1,-1,-1,-1,-1,-1,-1,-1,-1,-1,-1,-1,-1,-1,-1,-1,-1,-1,-1],"split_conditions":[3.6E3,1.6368766E0,1.48E3,1.125E3,3.55E1,1E3,1.16E2,1.25E0,6.1E1,1.1234137E-1,5.9069524E0,1.265E3,3.3496606E-1,3E-1,4.125E2,6.65E1,2.4481669E-1,1.355E3,1.5E2,1.675E3,7.55E1,2.4706917E-1,4.1E2,7.597134E-1,3.7492612E-1,3.1927118E-1,1.04E2,3.5282987E-1,4.946343E-1,7.75E2,1.2E3,9.125E2,3.219651E-1,1.9544424E-1,1.425E3,1.55E3,1.8812922E-1,1.25E0,3.8271143E0,2.2151573E-1,6.078927E0,1.8698607E-1,3.0043787E-1,1.385E3,4.1E2,1.506852E-1,4.125E2,3.5E-1,3.4564784E-1,5.084092E-1,1.4626619E-1,2.1092927E-1,3.5346076E-1,3.367312E-1,7.878204E-2,8.8653594E-1,5.346983E-1,6.142807E-3,1.19247474E-1,4.6608493E-1,3.6274385E-2,8.478732E-1,4.511715E-1,2.6257944E-1,7.523655E-1,2.498499E-1,5.5551183E-1,2.5822297E-1,5.2547544E-1,2.1319059E-1,4.6856213E-2,9.363909E-2,5.8027214E-1,6.1322E-2,2.6044217E-1,1.7056413E-1,-1.9435883E-2],"split_indices":[1,14,4,4,15,2,15,8,15,0,14,4,14,6,0,15,14,4,5,4,15,0,0,0,14,0,15,14,0,3,2,3,14,0,4,4,0,6,14,0,14,0,14,4,0,0,0,6,0,0,0,0,0,0,0,0,0,0,0,0,0,0,0,0,0,0,0,0,0,0,0,0,0,0,0,0,0],"split_type":[0,0,0,0,0,0,0,0,0,0,0,0,0,0,0,0,0,0,0,0,0,0,0,0,0,0,0,0,0,0,0,0,0,0,0,0,0,0,0,0,0,0,0,0,0,0,0,0,0,0,0,0,0,0,0,0,0,0,0,0,0,0,0,0,0,0,0,0,0,0,0,0,0,0,0,0,0],"sum_hessian":[3.84E2,2.25E2,1.59E2,1.44E2,8.1E1,4.7E1,1.12E2,8.5E1,5.9E1,3E0,7.8E1,2.6E1,2.1E1,3.8E1,7.4E1,5.9E1,2.6E1,2.2E1,3.7E1,5.3E1,2.5E1,1.2E1,1.4E1,1E1,1.1E1,7E0,3.1E1,6.4E1,1E1,3.9E1,2E1,7E0,1.9E1,6E0,1.6E1,3.3E1,4E0,4E1,1.3E1,3E0,2.2E1,2E0,1.2E1,3E0,8E0,1.4E1,1.7E1,2E0,6.2E1,3.7E1,2E0,1E1,1E1,6E0,1E0,6E0,1.3E1,1E0,1.5E1,3.2E1,1E0,3.2E1,8E0,8E0,5E0,3E0,1.9E1,4E0,8E0,2E0,1E0,1E0,7E0,1E0,1.6E1,1E0,1E0],"tree_param":{"num_deleted":"0","num_feature":"16","num_nodes":"77","size_leaf_vector":"0"}},{"base_weights":[4.1183004E0,4.5817814E0,3.4378936E0,3.886736E0,5.850756E0,4.5068116E0,2.9534163E0,4.4489703E0,3.0705032E0,1.0065129E1,5.424222E0,3.3095188E0,5.7713614E0,2.181364E0,3.3155046E0,3.9153135E0,5.4700975E0,1.300697E0,3.9665759E0,3.0925593E0,6.024468E0,2.8676229E0,5.888811E0,6.0576587E0,1.9389254E0,2.9133496E0,1.9302001E0,3.0646062E0,4.4966755E0,2.805013E0,4.628242E0,2.8809571E0,6.232249E0,1.7869189E0,1.0239763E0,4.175081E0,-1.356818E-1,4.473879E0,9.793402E-1,7.967233E0,4.6698766E0,1.020059E0,2.9839303E0,2.437043E0,6.324558E0,1.3662125E0,2.2929564E0,1.7634465E0,3.1912384E0,3.1471865E0,6.071484E0,3.5928864E0,1.7407637E0,5.0370364E0,1.8128954E0,3.0786855E0,7.484293E-1,8.819553E0,5.0342007E0,5.8356762E-2,1.0806803E0,2.4730914E0,4.659974E0,1.0243416E-1,-3.0595684E-1,1.0391576E0,5.797451E0,-1.8947959E0,1.6606162E0,8.696889E0,2.5095592E0,1.7975655E0,5.1844196E0,6.4775357E0,1.8619671E0,1.1374947E0,2.2841308E0,2.8143096E0,1.5944431E0,2.068122E0,-1.8464088E-1],"categories":[],"categories_nodes":[],"categories_segments":[],"categories_sizes":[],"default_left":[true,true,true,true,false,true,true,true,true,false,true,true,true,true,true,true,false,true,true,true,true,true,false,true,false,false,true,true,false,true,false,true,true,false,true,false,true,true,true,true,false,false,false,false,true,true,false,true,false,false,false,false,false,false,false,false,false,false,false,false,false,false,false,false,false,false,false,false,false,false,false,false,false,false,false,false,false,false,false,false,false],"id":14,"left_children":[1,3,5,7,9,11,13,15,17,-1,19,21,23,25,27,29,31,33,35,37,39,41,-1,43,-1,-1,45,47,49,51,53,55,57,-1,59,61,63,65,67,69,71,-1,-1,-1,73,75,77,79,-1,-1,-1,-1,-1,-1,-1,-1,-1,-1,-1,-1,-1,-1,-1,-1,-1,-1,-1,-1,-1,-1,-1,-1,-1,-1,-1,-1,-1,-1,-1,-1,-1],"loss_changes":[1.0566016E2,1.7659033E2,6.9548096E1,5.4717773E1,8.561548E1,5.3573242E1,2.4356934E1,2.54469E1,9.633667E1,0E0,8.35376E1,1.38871155E1,1.2393433E1,1.5467529E0,8.445923E0,3.4511597E1,3.5324707E1,1.2648315E0,3.6490784E1,4.5242065E1,1.1279834E2,2.328354E0,0E0,3.9135132E0,0E0,0E0,3.414215E0,5.0823975E0,4.2689667E0,1.5546478E1,3.1149841E1,1.069107E0,1.759491E1,0E0,8.677597E-1,2.1486816E1,1.5297604E-1,3.943654E1,1.8811167E1,6.578357E1,4.388611E1,0E0,0E0,0E0,2.2723389E-1,5.509777E-1,2.0678406E0,5.1301346E0,0E0,0E0,0E0,0E0,0E0,0E0,0E0,0E0,0E0,0E0,0E0,0E0,0E0,0E0,0E0,0E0,0E0,0E0,0E0,0E0,0E0,0E0,0E0,0E0,0E0,0E0,0E0,0E0,0E0,0E0,0E0,0E0,0E0],"parents":[2147483647,0,0,1,1,2,2,3,3,4,4,5,5,6,6,7,7,8,8,10,10,11,11,12,12,13,13,14,14,15,15,16,16,17,17,18,18,19,19,20,20,21,21,23,23,26,26,27,27,28,28,29,29,30,30,31,31,32,32,34,34,35,35,36,36,37,37,38,38,39,39,40,40,44,44,45,45,46,46,47,47],"right_children":[2,4,6,8,10,12,14,16,18,-1,20,22,24,26,28,30,32,34,36,38,40,42,-1,44,-1,-1,46,48,50,52,54,56,58,-1,60,62,64,66,68,70,72,-1,-1,-1,74,76,78,80,-1,-1,-1,-1,-1,-1,-1,-1,-1,-1,-1,-1,-1,-1,-1,-1,-1,-1,-1,-1,-1,-1,-1,-1,-1,-1,-1,-1,-1,-1,-1,-1,-1],"split_conditions":[3.6E3,1.9640455E0,1.48E3,1.125E3,2.3819404E0,1E3,1.16E2,1.25E0,6.1E1,1.006513E0,7.1E1,1.01E3,4.3443102E-1,3E-1,4.125E2,1.2E3,2.4481669E-1,1.355E3,1.8792404E0,6.25E1,1.5E2,1.07E3,5.8888113E-1,4.1E2,1.9389254E-1,2.9133496E-1,1.04E2,1.33E2,4.065432E-1,8.45E2,1.0604761E0,9.125E2,9.4E2,1.786919E-1,1.425E3,9.1428363E-1,1.25E0,3.55E1,-2.9905E3,1.76E3,3.8045597E0,1.020059E-1,2.9839304E-1,2.437043E-1,1.01E3,5.5E0,2.9780275E-1,3.5E-1,3.1912383E-1,3.1471866E-1,6.071484E-1,3.5928866E-1,1.7407636E-1,5.0370365E-1,1.8128954E-1,3.0786857E-1,7.484293E-2,8.819553E-1,5.0342005E-1,5.835676E-3,1.0806803E-1,2.4730913E-1,4.6599743E-1,1.0243416E-2,-3.0595684E-2,1.03915766E-1,5.797451E-1,-1.8947959E-1,1.6606162E-1,8.696889E-1,2.509559E-1,1.7975655E-1,5.18442E-1,6.477536E-1,1.8619671E-1,1.1374947E-1,2.2841309E-1,2.8143096E-1,1.5944432E-1,2.0681219E-1,-1.8464088E-2],"split_indices":[1,14,4,4,14,2,15,8,15,0,15,3,14,6,0,2,14,4,14,15,7,4,0,0,0,0,15,15,14,4,14,3,4,0,4,14,8,15,11,4,14,0,0,0,3,13,14,6,0,0,0,0,0,0,0,0,0,0,0,0,0,0,0,0,0,0,0,0,0,0,0,0,0,0,0,0,0,0,0,0,0],"split_type":[0,0,0,0,0,0,0,0,0,0,0,0,0,0,0,0,0,0,0,0,0,0,0,0,0,0,0,0,0,0,0,0,0,0,0,0,0,0,0,0,0,0,0,0,0,0,0,0,0,0,0,0,0,0,0,0,0,0,0,0,0,0,0,0,0,0,0,0,0,0,0,0,0,0,0,0,0,0,0,0,0],"sum_hessian":[3.84E2,2.25E2,1.59E2,1.48E2,7.7E1,4.7E1,1.12E2,8.5E1,6.3E1,5E0,7.2E1,2.6E1,2.1E1,3.8E1,7.4E1,5.9E1,2.6E1,2.2E1,4.1E1,1.6E1,5.6E1,2.4E1,2E0,1.9E1,2E0,7E0,3.1E1,6.4E1,1E1,2.5E1,3.4E1,7E0,1.9E1,6E0,1.6E1,3.9E1,2E0,9E0,7E0,2.1E1,3.5E1,2E0,2.2E1,2E0,1.7E1,1.4E1,1.7E1,7E0,5.7E1,7E0,3E0,1.3E1,1.2E1,2.9E1,5E0,6E0,1E0,4E0,1.5E1,1E0,1.5E1,1E1,2.9E1,1E0,1E0,3E0,6E0,1E0,6E0,1.8E1,3E0,6E0,2.9E1,1.6E1,1E0,1.3E1,1E0,8E0,9E0,6E0,1E0],"tree_param":{"num_deleted":"0","num_feature":"16","num_nodes":"81","size_leaf_vector":"0"}},{"base_weights":[3.7382162E0,4.1566014E0,3.1238825E0,3.4115293E0,5.130017E0,2.5556219E0,3.8945022E0,4.0387993E0,2.1646438E0,1.085263E0,5.2940793E0,1.0105568E0,2.705564E0,2.8540988E0,5.7155128E0,3.544088E0,4.9885726E0,1.2658814E0,3.1743188E0,3.0748057E-1,1.2028385E0,5.754656E0,4.0358095E0,1.3267528E0,2.0457482E-1,4.3892336E-1,2.7270665E0,5.4962234E0,2.5974207E0,6.001324E0,1.8096634E0,2.545026E0,4.1849885E0,6.4153743E0,3.6066854E0,-2.3647485E0,1.5056965E0,3.527316E0,-1.9428158E0,4.748741E0,6.5861874E0,1.8363793E0,4.226286E0,3.8970566E-1,-1.7540884E-1,2.742216E0,7.2725606E-1,2.1085732E0,3.4245038E0,3.8115308E0,6.6231394E0,3.680685E0,1.8358064E0,4.5501227E0,1.6618207E0,3.4361331E0,8.052527E0,2.0341606E0,4.346784E0,1.1652541E0,3.0017052E0,1.4075062E0,3.9692996E0,4.9217215E0,1.3783652E0,7.7127457E0,3.971981E0,4.317487E0,1.0187349E0,7.6762056E-1,2.2337744E0,5.325703E0,1.3444757E0],"categories":[],"categories_nodes":[],"categories_segments":[],"categories_sizes":[],"default_left":[true,true,true,true,true,false,true,true,true,true,false,false,true,true,true,true,true,true,true,false,false,true,true,false,true,false,true,false,true,false,false,true,false,true,false,false,true,true,false,true,true,false,false,false,false,false,false,true,false,false,false,false,false,false,false,false,false,false,false,false,false,false,false,false,false,false,false,false,false,false,false,false,false],"id":15,"left_children":[1,3,5,7,9,11,13,15,17,19,21,23,25,27,29,31,33,35,37,-1,-1,39,41,-1,43,-1,45,-1,47,49,-1,51,53,55,57,-1,59,61,-1,63,65,-1,67,-1,-1,-1,-1,69,-1,71,-1,-1,-1,-1,-1,-1,-1,-1,-1,-1,-1,-1,-1,-1,-1,-1,-1,-1,-1,-1,-1,-1,-1],"loss_changes":[8.597119E1,1.4640845E2,6.011316E1,9.371704E1,5.7959473E1,1.9274597E1,1.0873004E2,2.2728394E1,3.7724747E1,8.739138E-2,3.0092041E1,2.2770615E0,2.9945068E0,1.5563721E1,1.4815369E1,2.7767029E1,3.0097107E1,2.6198277E1,4.4785965E1,0E0,0E0,2.3093018E1,3.9692383E0,0E0,3.497446E-1,0E0,5.808716E-1,0E0,9.760498E0,3.3502197E0,0E0,1.4184204E1,2.4683777E1,3.0860138E1,9.779129E0,0E0,9.234871E0,1.3151596E1,0E0,1.2455322E1,6.6552E1,0E0,2.914917E0,0E0,0E0,0E0,0E0,3.1540833E0,0E0,1.8988548E1,0E0,0E0,0E0,0E0,0E0,0E0,0E0,0E0,0E0,0E0,0E0,0E0,0E0,0E0,0E0,0E0,0E0,0E0,0E0,0E0,0E0,0E0,0E0],"parents":[2147483647,0,0,1,1,2,2,3,3,4,4,5,5,6,6,7,7,8,8,9,9,10,10,11,11,12,12,13,13,14,14,15,15,16,16,17,17,18,18,21,21,22,22,24,24,26,26,28,28,29,29,31,31,32,32,33,33,34,34,36,36,37,37,39,39,40,40,42,42,47,47,49,49],"right_children":[2,4,6,8,10,12,14,16,18,20,22,24,26,28,30,32,34,36,38,-1,-1,40,42,-1,44,-1,46,-1,48,50,-1,52,54,56,58,-1,60,62,-1,64,66,-1,68,-1,-1,-1,-1,70,-1,72,-1,-1,-1,-1,-1,-1,-1,-1,-1,-1,-1,-1,-1,-1,-1,-1,-1,-1,-1,-1,-1,-1,-1],"split_conditions":[3.6E3,1.069124E0,4.125E2,1.125E3,4.65E1,3.159034E-1,1E3,1.25E0,6.45E1,1.55E1,5.537052E0,2.8375697E-1,2.275E2,3E-1,4.3443102E-1,1.2E3,8.625E2,-5.987E3,1.0298915E0,3.0748058E-2,1.2028386E-1,7.55E1,7.55E1,1.3267528E-1,4.025E2,4.3892335E-2,2E0,5.4962236E-1,1.15E2,3.7492612E-1,1.8096635E-1,1.8612054E-1,1.0604761E0,6.15E1,3.1436658E-1,-2.3647486E-1,6.1E1,1.0925E3,-1.9428158E-1,7.35E1,1.675E3,1.8363793E-1,1.4650919E1,3.8970567E-2,-1.7540885E-2,2.7422163E-1,7.272561E-2,4.5E-1,3.4245038E-1,3.3305186E-1,6.6231394E-1,3.6806852E-1,1.8358064E-1,4.550123E-1,1.6618207E-1,3.4361333E-1,8.0525273E-1,2.0341606E-1,4.346784E-1,1.1652541E-1,3.001705E-1,1.4075063E-1,3.9692995E-1,4.9217215E-1,1.3783652E-1,7.7127457E-1,3.971981E-1,4.317487E-1,1.01873495E-1,7.676206E-2,2.2337745E-1,5.325703E-1,1.3444757E-1],"split_indices":[1,14,0,4,15,14,2,8,15,15,14,14,0,6,14,2,3,11,14,0,0,15,15,0,0,0,6,0,15,14,0,14,14,15,14,0,15,3,0,15,4,0,14,0,0,0,0,6,0,14,0,0,0,0,0,0,0,0,0,0,0,0,0,0,0,0,0,0,0,0,0,0,0],"split_type":[0,0,0,0,0,0,0,0,0,0,0,0,0,0,0,0,0,0,0,0,0,0,0,0,0,0,0,0,0,0,0,0,0,0,0,0,0,0,0,0,0,0,0,0,0,0,0,0,0,0,0,0,0,0,0,0,0,0,0,0,0,0,0,0,0,0,0,0,0,0,0,0,0],"sum_hessian":[3.84E2,2.25E2,1.59E2,1.3E2,9.5E1,9.4E1,6.5E1,8.5E1,4.5E1,4E0,9.1E1,9E0,8.5E1,4.3E1,2.2E1,5.9E1,2.6E1,2.5E1,2E1,1E0,3E0,6.4E1,2.7E1,6E0,3E0,1E0,8.4E1,2E0,4.1E1,2E1,2E0,2.5E1,3.4E1,1.1E1,1.5E1,1E0,2.4E1,1.9E1,1E0,3.2E1,3.2E1,3E0,2.4E1,2E0,1E0,8.3E1,1E0,2.8E1,1.3E1,6E0,1.4E1,8E0,1.7E1,2.9E1,5E0,5E0,6E0,6E0,9E0,2.1E1,3E0,4E0,1.5E1,3E1,2E0,2.1E1,1.1E1,2.3E1,1E0,3E0,2.5E1,3E0,3E0],"tree_param":{"num_deleted":"0","num_feature":"16","num_nodes":"73","size_leaf_vector":"0"}},{"base_weights":[3.388804E0,3.7681549E0,2.8317912E0,3.1959538E0,4.8128953E0,2.3057961E0,3.5459993E0,3.7683475E0,2.6117892E0,8.676674E0,4.4293942E0,9.9339515E-1,2.4485092E0,2.5957847E0,5.209627E0,3.353116E0,4.7010555E0,1.2640369E0,3.2354386E0,2.066702E0,4.8603063E0,1.1260624E0,-1.6663837E-1,4.1697717E-1,2.46773E0,2.3202102E0,4.7714767E0,5.4644938E0,1.6890196E0,2.3551517E0,3.965618E0,6.677747E0,3.3769202E0,1.964146E0,8.437581E-1,3.3851902E0,-3.3890024E-1,-2.0758114E0,2.5848956E0,6.2238975E0,3.7404816E0,2.52779E-1,1.1950073E0,2.4808972E0,6.874337E-1,1.4111601E0,2.6918707E0,3.5256665E0,6.00498E0,2.99655E0,1.221679E0,4.207465E0,1.2208204E0,8.624781E0,3.0612764E0,1.157271E0,3.6504223E0,4.6920824E-1,2.0923622E0,9.6357054E-1,4.435382E-1,2.1918886E0,3.987926E0,2.83947E-2,-5.367451E-1,-3.730812E-1,2.887719E0,4.199598E0,7.925151E0,3.8146496E-1,4.0342875E0,1.4534538E0,6.9755924E-1,2.2990754E0,2.9723449E0,1.8510474E0,9.611063E-1,4.9262757E0,1.2436404E0],"categories":[],"categories_nodes":[],"categories_segments":[],"categories_sizes":[],"default_left":[true,true,true,true,false,false,true,true,true,false,false,true,true,true,true,true,true,true,true,true,true,true,false,false,true,true,false,false,false,true,false,true,true,false,true,false,true,false,true,true,false,false,true,false,false,true,false,false,false,false,false,false,false,false,false,false,false,false,false,false,false,false,false,false,false,false,false,false,false,false,false,false,false,false,false,false,false,false,false],"id":16,"left_children":[1,3,5,7,9,11,13,15,17,-1,19,21,23,25,27,29,31,33,35,37,39,41,-1,-1,43,45,-1,47,-1,49,51,53,55,57,59,61,63,-1,65,67,69,-1,71,73,-1,75,-1,77,-1,-1,-1,-1,-1,-1,-1,-1,-1,-1,-1,-1,-1,-1,-1,-1,-1,-1,-1,-1,-1,-1,-1,-1,-1,-1,-1,-1,-1,-1,-1],"loss_changes":[7.0680664E1,1.19721436E2,5.193091E1,3.9979248E1,7.714514E1,1.5360901E1,9.080994E1,1.2509033E1,6.0630737E1,0E0,6.427734E1,1.8805275E0,2.2900696E0,1.5310028E1,1.1407898E1,2.3668152E1,2.9797882E1,5.993004E0,2.8980896E1,3.327187E1,6.98656E1,3.0001163E-1,0E0,0E0,2.6361084E-1,1.0053513E1,0E0,8.345337E-1,0E0,1.30603485E1,1.6105743E1,2.2886902E1,4.274582E0,7.4332047E-1,4.3574333E-1,2.7221191E1,2.3324293E-1,0E0,1.1826294E1,5.625757E1,3.398941E1,0E0,1.4320278E-1,5.8288574E-1,0E0,9.9256897E-1,0E0,1.6247078E1,0E0,0E0,0E0,0E0,0E0,0E0,0E0,0E0,0E0,0E0,0E0,0E0,0E0,0E0,0E0,0E0,0E0,0E0,0E0,0E0,0E0,0E0,0E0,0E0,0E0,0E0,0E0,0E0,0E0,0E0,0E0],"parents":[2147483647,0,0,1,1,2,2,3,3,4,4,5,5,6,6,7,7,8,8,10,10,11,11,12,12,13,13,14,14,15,15,16,16,17,17,18,18,19,19,20,20,21,21,24,24,25,25,27,27,29,29,30,30,31,31,32,32,33,33,34,34,35,35,36,36,38,38,39,39,40,40,42,42,43,43,45,45,47,47],"right_children":[2,4,6,8,10,12,14,16,18,-1,20,22,24,26,28,30,32,34,36,38,40,42,-1,-1,44,46,-1,48,-1,50,52,54,56,58,60,62,64,-1,66,68,70,-1,72,74,-1,76,-1,78,-1,-1,-1,-1,-1,-1,-1,-1,-1,-1,-1,-1,-1,-1,-1,-1,-1,-1,-1,-1,-1,-1,-1,-1,-1,-1,-1,-1,-1,-1,-1],"split_conditions":[3.6E3,1.9640455E0,4.125E2,9.75E2,2.3819404E0,3.2751065E-1,1E3,1.25E0,6.1E1,8.676674E-1,2.9960456E0,2.5E2,2.275E2,1.01E3,4.3443102E-1,1.2E3,8.625E2,3.2E2,1.8792404E0,9.5E2,1.5E2,9.5E2,-1.6663838E-2,4.169772E-2,3.5E0,1.065E2,4.7714767E-1,3.7492612E-1,1.6890197E-1,8.45E2,1.0604761E0,1.2E3,7.45E1,4.6254027E-1,5.45E1,9.4132626E-1,1.25E0,-2.0758115E-1,1.575E3,7.95E1,3.7991285E0,2.5277901E-2,7.5E-1,8.938835E0,6.874337E-2,2.8315264E-1,2.6918706E-1,3.3305186E-1,6.00498E-1,2.9965502E-1,1.221679E-1,4.2074654E-1,1.2208205E-1,8.624781E-1,3.0612764E-1,1.15727104E-1,3.6504224E-1,4.6920825E-2,2.0923622E-1,9.6357055E-2,4.435382E-2,2.1918885E-1,3.987926E-1,2.83947E-3,-5.3674508E-2,-3.7308123E-2,2.887719E-1,4.1995978E-1,7.925151E-1,3.8146496E-2,4.0342876E-1,1.4534537E-1,6.975593E-2,2.2990754E-1,2.972345E-1,1.8510474E-1,9.6110635E-2,4.926276E-1,1.2436404E-1],"split_indices":[1,14,0,4,14,14,2,8,15,0,14,7,0,3,14,2,3,0,14,3,7,3,0,0,8,15,0,14,0,4,14,2,15,14,15,14,8,0,4,15,14,0,6,14,0,14,0,14,0,0,0,0,0,0,0,0,0,0,0,0,0,0,0,0,0,0,0,0,0,0,0,0,0,0,0,0,0,0,0],"split_type":[0,0,0,0,0,0,0,0,0,0,0,0,0,0,0,0,0,0,0,0,0,0,0,0,0,0,0,0,0,0,0,0,0,0,0,0,0,0,0,0,0,0,0,0,0,0,0,0,0,0,0,0,0,0,0,0,0,0,0,0,0,0,0,0,0,0,0,0,0,0,0,0,0,0,0,0,0,0,0],"sum_hessian":[3.84E2,2.25E2,1.59E2,1.48E2,7.7E1,9.4E1,6.5E1,7.2E1,7.6E1,5E0,7.2E1,1E1,8.4E1,4.3E1,2.2E1,5.3E1,1.9E1,2.5E1,5.1E1,1.2E1,6E1,9E0,1E0,1E0,8.3E1,4E1,3E0,2E1,2E0,2.2E1,3.1E1,6E0,1.3E1,8E0,1.7E1,4.9E1,2E0,1E0,1.1E1,2.5E1,3.5E1,1E0,8E0,8.2E1,1E0,1.3E1,2.7E1,6E0,1.4E1,1.3E1,9E0,2.8E1,3E0,3E0,3E0,2E0,1.1E1,1E0,7E0,1.2E1,5E0,1.8E1,3.1E1,1E0,1E0,1E0,1E1,1.3E1,1.2E1,3E0,3.2E1,4E0,4E0,6.4E1,1.8E1,5E0,8E0,3E0,3E0],"tree_param":{"num_deleted":"0","num_feature":"16","num_nodes":"79","size_leaf_vector":"0"}},{"base_weights":[3.0743883E0,3.4185236E0,2.569082E0,2.8763347E0,4.3355827E0,3.4190292E0,2.1853073E0,3.3366323E0,2.1686358E0,2.8381307E0,4.7728558E0,1.828082E0,3.9577215E0,1.5798925E0,2.4709857E0,2.8957844E0,4.192715E0,1.1426507E0,2.9734526E0,3.9764535E0,1.9849367E0,4.5671955E-1,4.909115E0,2.4013996E-1,1.9317591E0,1.1897283E0,4.180042E0,1.3765414E0,2.19581E0,2.2662106E0,3.456385E0,3.3632123E0,1.8675508E0,6.1769156E0,3.3316617E0,8.907735E-1,2.9447033E0,7.692026E-1,3.1682374E0,1.2914788E0,3.395712E0,5.6000576E0,3.5541177E0,9.651489E-1,4.252614E0,6.686884E-1,1.7154793E0,2.4409037E0,2.400775E-1,1.479212E0,2.3991323E0,2.3366256E0,4.831807E0,3.4670053E0,9.2743224E-1,2.0075986E0,3.5806498E-1,7.9779215E0,2.8316808E0,1.6389797E0,3.8994691E0,-2.3561053E0,1.1148928E0,3.2910354E0,-1.9645119E-1,2.2991889E0,3.871889E-1,4.146589E0,5.7154083E-1,5.741089E0,1.9094849E-1,3.955347E0,-4.39195E-1,4.8694873E0,3.1557338E0,-2.1705627E-3,8.030773E-1,8.08403E-1,1.8813559E0,1.7036464E0,6.044316E-1],"categories":[],"categories_nodes":[],"categories_segments":[],"categories_sizes":[],"default_left":[true,true,true,true,true,true,true,true,true,true,true,false,true,false,true,true,true,true,true,false,true,false,true,false,false,false,false,true,true,true,false,true,true,true,false,true,false,false,true,false,true,true,true,false,true,true,true,false,false,true,false,false,false,false,false,false,false,false,false,false,false,false,false,false,false,false,false,false,false,false,false,false,false,false,false,false,false,false,false,false,false],"id":17,"left_children":[1,3,5,7,9,11,13,15,17,19,21,23,25,27,29,31,33,35,37,-1,39,-1,41,-1,-1,-1,43,45,47,49,51,53,55,57,59,61,-1,-1,63,65,67,69,71,-1,73,75,77,-1,-1,79,-1,-1,-1,-1,-1,-1,-1,-1,-1,-1,-1,-1,-1,-1,-1,-1,-1,-1,-1,-1,-1,-1,-1,-1,-1,-1,-1,-1,-1,-1,-1],"loss_changes":[5.8166504E1,9.990088E1,4.4718628E1,3.999817E1,4.0147217E1,3.3902466E1,1.5639893E1,2.0315369E1,4.614618E1,1.2502396E1,3.4220947E1,1.8409729E0,1.6565186E1,1.8620224E0,7.300995E0,2.2556519E1,2.555017E1,1.0086029E1,1.1731689E1,0E0,9.310894E0,0E0,3.6270264E1,0E0,0E0,0E0,3.3616333E0,6.530262E0,3.2486916E0,3.250763E0,5.6514435E0,6.8972473E0,3.720543E0,1.958258E1,1.3792328E1,2.1546703E1,0E0,0E0,1.304184E1,9.133663E0,6.1124725E0,2.789209E1,3.8588562E1,0E0,5.6088867E0,1.0836148E0,1.6388245E0,0E0,0E0,1.326231E0,0E0,0E0,0E0,0E0,0E0,0E0,0E0,0E0,0E0,0E0,0E0,0E0,0E0,0E0,0E0,0E0,0E0,0E0,0E0,0E0,0E0,0E0,0E0,0E0,0E0,0E0,0E0,0E0,0E0,0E0,0E0],"parents":[2147483647,0,0,1,1,2,2,3,3,4,4,5,5,6,6,7,7,8,8,9,9,10,10,11,11,12,12,13,13,14,14,15,15,16,16,17,17,18,18,20,20,22,22,26,26,27,27,28,28,29,29,30,30,31,31,32,32,33,33,34,34,35,35,38,38,39,39,40,40,41,41,42,42,44,44,45,45,46,46,49,49],"right_children":[2,4,6,8,10,12,14,16,18,20,22,24,26,28,30,32,34,36,38,-1,40,-1,42,-1,-1,-1,44,46,48,50,52,54,56,58,60,62,-1,-1,64,66,68,70,72,-1,74,76,78,-1,-1,80,-1,-1,-1,-1,-1,-1,-1,-1,-1,-1,-1,-1,-1,-1,-1,-1,-1,-1,-1,-1,-1,-1,-1,-1,-1,-1,-1,-1,-1,-1,-1],"split_conditions":[3.6E3,1.6368766E0,1.48E3,1.125E3,-2.9905E3,4.125E2,1.16E2,1.25E0,6.45E1,1.55E3,3.55E1,3.159034E-1,1.23E3,1.1078329E0,4.125E2,6.65E1,9.4E2,2.75E0,1.0175E3,3.9764535E-1,5.5E0,4.5671955E-2,1.25E0,2.4013996E-2,1.9317591E-1,1.1897283E-1,2.77396E-1,1.025E2,1.2E3,1.375E2,4.065432E-1,7.75E2,8.63E2,1.2E3,3.1436658E-1,-2.994E3,2.9447034E-1,7.692026E-2,1.55E3,3.1105719E0,5.25E0,4.65E2,1.2E3,9.6514896E-2,1.385E3,9.75E2,9.5E2,2.4409036E-1,2.400775E-2,3.5E-1,2.3991323E-1,2.3366256E-1,4.8318073E-1,3.4670052E-1,9.2743225E-2,2.0075987E-1,3.58065E-2,7.9779214E-1,2.8316808E-1,1.6389798E-1,3.899469E-1,-2.3561053E-1,1.1148929E-1,3.2910356E-1,-1.964512E-2,2.2991888E-1,3.871889E-2,4.1465887E-1,5.7154085E-2,5.741089E-1,1.9094849E-2,3.9553472E-1,-4.39195E-2,4.8694873E-1,3.155734E-1,-2.1705628E-4,8.030773E-2,8.0840304E-2,1.881356E-1,1.7036465E-1,6.0443163E-2],"split_indices":[1,14,4,4,11,0,15,8,15,4,15,14,4,14,0,15,4,12,3,0,13,0,8,0,0,0,14,15,2,15,14,3,3,2,14,11,0,0,4,14,12,7,2,0,4,3,3,0,0,6,0,0,0,0,0,0,0,0,0,0,0,0,0,0,0,0,0,0,0,0,0,0,0,0,0,0,0,0,0,0,0],"split_type":[0,0,0,0,0,0,0,0,0,0,0,0,0,0,0,0,0,0,0,0,0,0,0,0,0,0,0,0,0,0,0,0,0,0,0,0,0,0,0,0,0,0,0,0,0,0,0,0,0,0,0,0,0,0,0,0,0,0,0,0,0,0,0,0,0,0,0,0,0,0,0,0,0,0,0,0,0,0,0,0,0],"sum_hessian":[3.84E2,2.25E2,1.59E2,1.44E2,8.1E1,4.7E1,1.12E2,8.5E1,5.9E1,2E1,6.1E1,1.3E1,3.4E1,3.8E1,7.4E1,5.9E1,2.6E1,2.7E1,3.2E1,7E0,1.3E1,2E0,5.9E1,1E0,1.2E1,3E0,3.1E1,3.1E1,7E0,6.4E1,1E1,3.9E1,2E1,6E0,2E1,2.5E1,2E0,3E0,2.9E1,1E1,3E0,3.7E1,2.2E1,1E0,3E1,1.1E1,2E1,6E0,1E0,1.1E1,5.3E1,7E0,3E0,3.7E1,2E0,1.8E1,2E0,3E0,3E0,6E0,1.4E1,1E0,2.4E1,2.8E1,1E0,4E0,6E0,2E0,1E0,3.6E1,1E0,2E1,2E0,1.7E1,1.3E1,2E0,9E0,4E0,1.6E1,8E0,3E0],"tree_param":{"num_deleted":"0","num_feature":"16","num_nodes":"81","size_leaf_vector":"0"}},{"base_weights":[2.7878225E0,3.098778E0,2.3311737E0,2.6084774E0,3.9279833E0,1.8848299E0,2.9383173E0,3.029839E0,1.9610512E0,5.637003E-1,4.0486054E0,1.2358016E0,2.0989714E0,2.1382165E0,4.341192E0,2.6174726E0,3.8339922E0,8.667401E-1,2.5717907E0,1.24884605E-1,6.68344E-1,4.600122E0,2.8797674E0,4.3333265E-1,1.4548757E0,2.112931E0,5.678797E-1,4.487077E0,1.9195309E0,4.5676513E0,1.308911E0,3.037877E0,1.6920608E0,5.713647E0,3.0248697E0,1.2982813E0,6.3806194E-1,1.9643987E0,3.2841797E0,4.7646375E0,1.4347782E0,2.3763475E0,4.0505486E0,-1.6809797E-1,5.615874E-1,7.0225567E-1,1.8061129E0,1.5284556E0,2.592506E0,2.892821E0,5.0447288E0,2.1564703E0,3.4804623E0,1.8174051E0,3.3419386E-1,7.379577E0,2.6193047E0,1.4984959E0,3.5355194E0,1.4019468E0,3.381443E-1,-8.074522E-2,6.88034E-1,2.3796988E0,-1.5975012E0,3.4550984E0,3.6020088E-1,5.1083155E0,2.6695876E0,-2.2590752E0,3.4190876E0,2.6750383E0,-4.0704027E-1,4.544652E0,5.42964E-1,7.438224E-1,2.845143E-1,8.5644305E-1,-1.8852806E-1,1.8673247E0,5.3578544E-1,1.9838722E0,1.0902867E0,4.2344375E0,8.279996E-1],"categories":[],"categories_nodes":[],"categories_segments":[],"categories_sizes":[],"default_left":[true,true,true,true,true,false,true,true,true,true,false,true,true,true,true,true,true,true,true,false,false,true,false,true,false,false,false,false,true,false,false,true,true,true,false,true,true,true,true,true,false,false,true,false,true,true,true,true,false,false,false,false,false,false,false,false,false,false,false,false,false,false,false,false,false,false,false,false,false,false,false,false,false,false,false,false,false,false,false,false,false,false,false,false,false],"id":18,"left_children":[1,3,5,7,9,11,13,15,17,19,21,23,25,27,29,31,33,35,37,-1,-1,39,41,43,45,-1,-1,-1,47,49,-1,51,53,55,57,59,61,63,65,67,69,71,73,-1,75,77,79,81,-1,83,-1,-1,-1,-1,-1,-1,-1,-1,-1,-1,-1,-1,-1,-1,-1,-1,-1,-1,-1,-1,-1,-1,-1,-1,-1,-1,-1,-1,-1,-1,-1,-1,-1,-1,-1],"loss_changes":[4.7445312E1,8.1636475E1,3.7820923E1,3.361438E1,3.0994019E1,1.0609558E1,6.4798706E1,1.8482666E1,3.787126E1,1.0021126E-1,3.767871E1,3.940361E0,2.9623413E-1,1.3988052E1,9.815186E0,1.8202545E1,2.3780457E1,1.441349E0,9.991119E0,0E0,0E0,2.0242798E1,6.877533E0,6.3435614E-1,4.018612E0,0E0,0E0,0E0,7.0911865E0,2.1859741E0,0E0,8.098389E0,2.9668503E0,1.6755356E1,1.1070328E1,2.2267056E-1,6.661997E-1,3.7824486E1,6.7516785E0,2.164392E1,3.704297E1,1.9379028E1,9.664192E0,0E0,9.1326356E-2,1.2602441E0,1.0379791E-2,3.6239395E0,0E0,1.5885273E1,0E0,0E0,0E0,0E0,0E0,0E0,0E0,0E0,0E0,0E0,0E0,0E0,0E0,0E0,0E0,0E0,0E0,0E0,0E0,0E0,0E0,0E0,0E0,0E0,0E0,0E0,0E0,0E0,0E0,0E0,0E0,0E0,0E0,0E0,0E0],"parents":[2147483647,0,0,1,1,2,2,3,3,4,4,5,5,6,6,7,7,8,8,9,9,10,10,11,11,12,12,13,13,14,14,15,15,16,16,17,17,18,18,21,21,22,22,23,23,24,24,28,28,29,29,31,31,32,32,33,33,34,34,35,35,36,36,37,37,38,38,39,39,40,40,41,41,42,42,44,44,45,45,46,46,47,47,49,49],"right_children":[2,4,6,8,10,12,14,16,18,20,22,24,26,28,30,32,34,36,38,-1,-1,40,42,44,46,-1,-1,-1,48,50,-1,52,54,56,58,60,62,64,66,68,70,72,74,-1,76,78,80,82,-1,84,-1,-1,-1,-1,-1,-1,-1,-1,-1,-1,-1,-1,-1,-1,-1,-1,-1,-1,-1,-1,-1,-1,-1,-1,-1,-1,-1,-1,-1,-1,-1,-1,-1,-1,-1],"split_conditions":[3.6E3,1.6368766E0,4.125E2,1.125E3,3.55E1,1.1078329E0,1E3,1.25E0,6.1E1,1.55E1,5.537052E0,9.3E1,3.5E0,3E-1,4.3443102E-1,6.65E1,9.4E2,1.355E3,6.75E1,1.2488461E-2,6.6834405E-2,1.76E3,8.619735E0,3E-1,3.159034E-1,2.112931E-1,5.6787968E-2,4.4870773E-1,1.15E2,3.7492612E-1,1.308911E-1,1.2E3,8.63E2,1.2E3,3.1436658E-1,5.45E1,1.425E3,1.25E0,1.4867331E0,1.25E0,3.0938754E0,8.106739E0,5.25E0,-1.6809797E-2,2.275E2,2.5E2,2E0,2.9780275E-1,2.592506E-1,3.3305186E-1,5.044729E-1,2.1564703E-1,3.4804624E-1,1.8174051E-1,3.3419386E-2,7.379577E-1,2.6193047E-1,1.498496E-1,3.5355195E-1,1.4019468E-1,3.381443E-2,-8.074522E-3,6.88034E-2,2.3796988E-1,-1.5975012E-1,3.4550986E-1,3.602009E-2,5.1083153E-1,2.6695877E-1,-2.2590752E-1,3.4190878E-1,2.6750383E-1,-4.0704027E-2,4.544652E-1,5.42964E-2,7.438224E-2,2.8451432E-2,8.5644305E-2,-1.8852806E-2,1.8673247E-1,5.3578544E-2,1.9838722E-1,1.09028675E-1,4.2344376E-1,8.279996E-2],"split_indices":[1,14,0,4,15,14,2,8,15,15,14,15,8,6,14,15,4,4,15,0,0,4,14,6,14,0,0,0,15,14,0,2,3,2,14,15,4,8,14,6,14,14,12,0,0,7,6,14,0,14,0,0,0,0,0,0,0,0,0,0,0,0,0,0,0,0,0,0,0,0,0,0,0,0,0,0,0,0,0,0,0,0,0,0,0],"split_type":[0,0,0,0,0,0,0,0,0,0,0,0,0,0,0,0,0,0,0,0,0,0,0,0,0,0,0,0,0,0,0,0,0,0,0,0,0,0,0,0,0,0,0,0,0,0,0,0,0,0,0,0,0,0,0,0,0,0,0,0,0,0,0,0,0,0,0,0,0,0,0,0,0,0,0,0,0,0,0,0,0,0,0,0,0],"sum_hessian":[3.84E2,2.25E2,1.59E2,1.44E2,8.1E1,9.4E1,6.5E1,8.5E1,5.9E1,3E0,7.8E1,2.5E1,6.9E1,4.3E1,2.2E1,5.9E1,2.6E1,2.2E1,3.7E1,1E0,2E0,5.1E1,2.7E1,6E0,1.9E1,6.8E1,1E0,2E0,4.1E1,2E1,2E0,3.9E1,2E1,6E0,2E1,6E0,1.6E1,2.2E1,1.5E1,4.8E1,3E0,2.1E1,6E0,1E0,5E0,7E0,1.2E1,2.8E1,1.3E1,6E0,1.4E1,1.5E1,2.4E1,1.8E1,2E0,3E0,3E0,6E0,1.4E1,5E0,1E0,1E0,1.5E1,2E1,2E0,1.4E1,1E0,4E1,8E0,1E0,2E0,1.9E1,2E0,5E0,1E0,2E0,3E0,6E0,1E0,1.1E1,1E0,1.2E1,1.6E1,3E0,3E0],"tree_param":{"num_deleted":"0","num_feature":"16","num_nodes":"85","size_leaf_vector":"0"}},{"base_weights":[2.52853E0,2.8096318E0,2.11567E0,2.3790953E0,3.596046E0,1.7033069E0,2.6771672E0,2.4315808E0,-9.8572415E-1,7.1090245E0,3.258047E0,7.389314E-1,1.8080695E0,1.9474715E0,3.956708E0,1.7294098E0,2.744307E0,1.2290965E0,3.6771681E0,8.4864485E-1,-1.7910147E-1,1.6569618E0,2.2163217E0,1.7122624E0,3.8714967E0,4.0867577E0,5.478053E-1,2.3028321E0,7.329847E-1,4.131586E0,2.5264232E0,-2.146121E0,1.6538149E0,4.9293003E0,2.7054884E0,1.8531084E-1,9.0175855E-1,1.7814276E0,1.1150162E0,2.2761822E0,5.3948593E-1,9.7767967E-1,2.0184016E0,1.2560995E0,2.5667899E0,8.620362E-1,3.353262E-2,2.7603595E0,1.2865669E0,-5.4029083E-1,2.1018605E0,3.0953739E0,6.6581063E0,-2.6170015E-1,2.983163E0,1.1458652E0,4.7730017E-1,3.1878328E-1,1.8038563E0,2.2021222E0,8.8007134E-1,1.3018843E0,6.5291214E-1,1.6911486E0,2.7585676E0],"categories":[],"categories_nodes":[],"categories_segments":[],"categories_sizes":[],"default_left":[true,true,true,true,false,false,true,true,false,false,false,true,false,true,true,true,true,true,true,true,false,true,true,true,false,false,false,false,true,false,true,false,false,true,false,false,true,true,false,false,false,true,false,false,false,false,false,false,false,false,false,false,false,false,false,false,false,false,false,false,false,false,false,false,false],"id":19,"left_children":[1,3,5,7,9,11,13,15,-1,-1,17,19,21,23,25,27,29,31,33,35,-1,37,39,41,-1,-1,-1,43,45,-1,47,-1,49,51,53,-1,55,57,59,-1,-1,61,63,-1,-1,-1,-1,-1,-1,-1,-1,-1,-1,-1,-1,-1,-1,-1,-1,-1,-1,-1,-1,-1,-1],"loss_changes":[3.8737305E1,6.796362E1,3.248645E1,2.8710876E1,6.9454346E1,8.261871E0,5.3916992E1,2.7533325E1,0E0,0E0,5.75578E1,1.2599192E0,1.5712891E0,1.3283096E1,7.957794E0,2.5737946E1,1.9788452E1,2.361852E1,5.9664185E1,1.8521595E-1,0E0,2.465622E0,7.795563E-1,7.2469177E0,0E0,0E0,0E0,5.0646515E0,1.6861343E0,0E0,2.2262817E1,0E0,1.3915394E1,5.86532E1,3.044159E1,0E0,3.8559628E-1,1.1308289E0,1.8931255E0,0E0,0E0,6.240597E-1,2.1170502E0,0E0,0E0,0E0,0E0,0E0,0E0,0E0,0E0,0E0,0E0,0E0,0E0,0E0,0E0,0E0,0E0,0E0,0E0,0E0,0E0,0E0,0E0],"parents":[2147483647,0,0,1,1,2,2,3,3,4,4,5,5,6,6,7,7,10,10,11,11,12,12,13,13,14,14,15,15,16,16,17,17,18,18,19,19,21,21,22,22,23,23,27,27,28,28,30,30,32,32,33,33,34,34,36,36,37,37,38,38,41,41,42,42],"right_children":[2,4,6,8,10,12,14,16,-1,-1,18,20,22,24,26,28,30,32,34,36,-1,38,40,42,-1,-1,-1,44,46,-1,48,-1,50,52,54,-1,56,58,60,-1,-1,62,64,-1,-1,-1,-1,-1,-1,-1,-1,-1,-1,-1,-1,-1,-1,-1,-1,-1,-1,-1,-1,-1,-1],"split_conditions":[3.6E3,1.9640455E0,4.125E2,1.8792404E0,2.3819404E0,3.2751065E-1,1E3,5.65E1,-9.857242E-2,7.1090245E-1,3.0432465E0,2.5E2,8.938835E0,1.01E3,4.6044537E-1,1.25E3,3.775E2,9.5E2,1.5E2,9.5E2,-1.7910147E-2,7.5E-1,3.5E0,1.065E2,3.8714966E-1,4.0867576E-1,5.478053E-2,4.3960637E-1,5.45E1,4.1315863E-1,1.5E2,-2.1461211E-1,2.6338696E0,7.95E1,3.7991285E0,1.8531084E-2,7.5E-1,2.275E2,3.5389468E-1,2.2761822E-1,5.3948592E-2,2.8315264E-1,4.3686348E-1,1.2560995E-1,2.56679E-1,8.620363E-2,3.353262E-3,2.7603596E-1,1.2865669E-1,-5.4029085E-2,2.1018605E-1,3.0953738E-1,6.6581064E-1,-2.6170015E-2,2.9831633E-1,1.14586525E-1,4.7730017E-2,3.187833E-2,1.8038563E-1,2.2021222E-1,8.800714E-2,1.3018844E-1,6.529122E-2,1.6911487E-1,2.7585676E-1],"split_indices":[1,14,0,14,14,14,2,15,0,0,14,7,14,3,14,4,0,3,7,3,0,6,8,15,0,0,0,14,15,0,5,0,14,15,14,0,6,0,14,0,0,14,14,0,0,0,0,0,0,0,0,0,0,0,0,0,0,0,0,0,0,0,0,0,0],"split_type":[0,0,0,0,0,0,0,0,0,0,0,0,0,0,0,0,0,0,0,0,0,0,0,0,0,0,0,0,0,0,0,0,0,0,0,0,0,0,0,0,0,0,0,0,0,0,0,0,0,0,0,0,0,0,0,0,0,0,0,0,0,0,0,0,0],"sum_hessian":[3.84E2,2.25E2,1.59E2,1.48E2,7.7E1,9.4E1,6.5E1,1.46E2,2E0,5E0,7.2E1,1E1,8.4E1,4.3E1,2.2E1,4.7E1,9.9E1,1.3E1,5.9E1,9E0,1E0,6.5E1,1.9E1,4E1,3E0,2.1E1,1E0,2.9E1,1.8E1,1.1E1,8.8E1,1E0,1.2E1,2.4E1,3.5E1,1E0,8E0,5.1E1,1.4E1,1.8E1,1E0,1.3E1,2.7E1,7E0,2.2E1,1.5E1,3E0,7.3E1,1.5E1,2E0,1E1,1.3E1,1.1E1,3E0,3.2E1,4E0,4E0,1E0,5E1,1E0,1.3E1,5E0,8E0,2.1E1,6E0],"tree_param":{"num_deleted":"0","num_feature":"16","num_nodes":"65","size_leaf_vector":"0"}},{"base_weights":[2.2900848E0,2.5423458E0,1.9194531E0,2.075142E0,3.1534016E0,2.5801845E0,1.6218021E0,2.4971347E0,1.2410873E0,4.9540585E-1,3.2635818E0,1.3830725E0,2.9853098E0,1.1571181E0,1.8418138E0,2.1249456E0,3.231735E0,1.3694566E0,-2.267766E0,1.35474205E-2,6.124836E-1,3.7144392E0,2.4232016E0,1.7604542E-1,1.4623787E0,5.435343E-1,3.1168256E0,9.920712E-1,1.6726658E0,1.5392185E0,2.3227527E0,1.4265324E0,2.583054E0,5.0485215E0,2.4722474E0,7.001496E-1,2.171083E0,3.7874355E0,-2.2317266E-1,2.6465337E0,-8.411853E-1,6.1777145E-1,1.5597827E0,5.5943255E0,2.7765248E0,4.6358064E-1,1.2468243E0,1.8892114E0,7.84235E-2,1.0584229E0,1.7202042E0,2.790158E0,1.505983E0,2.3934135E0,8.638399E-1,2.8452344E0,8.416435E-1,6.619083E0,2.2158298E0,1.1334509E0,2.9322026E0,-2.4953027E0,9.277798E-1,5.914553E-1,2.5290241E0,2.9270449E0,4.517225E0,2.7539008E0,-3.946066E-1,-1.8931284E0,6.313505E-1,7.9869366E-1,1.2796354E-1,1.3715831E0,2.9939525E0,-2.4988604E-1,5.511582E-1,1.6269565E0,8.2614547E-1,1.7573508E0,3.3981912E0,1.6147401E0,6.414649E-1],"categories":[],"categories_nodes":[],"categories_segments":[],"categories_sizes":[],"default_left":[true,true,true,true,true,true,true,true,true,true,true,false,true,false,true,true,true,true,false,false,false,true,true,false,true,false,true,true,true,true,true,true,false,true,false,true,true,false,false,false,true,true,false,false,false,true,false,false,false,false,false,false,true,false,false,false,false,false,false,false,false,false,false,false,false,false,false,false,false,false,false,false,false,false,false,false,false,false,false,false,false,false,false],"id":20,"left_children":[1,3,5,7,9,11,13,15,17,19,21,23,25,27,29,31,33,35,-1,-1,-1,37,39,-1,41,-1,43,45,47,49,51,53,55,57,59,61,63,65,-1,67,69,71,-1,-1,73,75,77,-1,-1,-1,-1,79,81,-1,-1,-1,-1,-1,-1,-1,-1,-1,-1,-1,-1,-1,-1,-1,-1,-1,-1,-1,-1,-1,-1,-1,-1,-1,-1,-1,-1,-1,-1],"loss_changes":[3.1116089E1,5.797644E1,2.7282227E1,4.300824E1,2.6497559E1,1.9150146E1,9.421478E0,1.6645996E1,2.3825348E1,2.73777E-1,2.5857239E1,1.0827007E0,9.545532E0,1.6590881E0,7.3395233E0,1.5512146E1,2.477414E1,2.2623947E1,0E0,0E0,0E0,1.7516235E1,2.7742691E1,0E0,1.05895996E-1,0E0,1.2289337E1,3.7303047E0,2.6136494E0,2.4431305E0,6.105667E0,1.207795E1,1.35850525E1,1.6475647E1,9.608017E0,2.1227009E1,9.8124695E0,2.256836E1,0E0,1.1861816E1,5.842299E0,1.6364765E-1,0E0,0E0,5.36322E0,8.8753057E-1,2.01408E0,0E0,0E0,0E0,0E0,4.075882E0,9.247208E-2,0E0,0E0,0E0,0E0,0E0,0E0,0E0,0E0,0E0,0E0,0E0,0E0,0E0,0E0,0E0,0E0,0E0,0E0,0E0,0E0,0E0,0E0,0E0,0E0,0E0,0E0,0E0,0E0,0E0,0E0],"parents":[2147483647,0,0,1,1,2,2,3,3,4,4,5,5,6,6,7,7,8,8,9,9,10,10,11,11,12,12,13,13,14,14,15,15,16,16,17,17,21,21,22,22,24,24,26,26,27,27,28,28,29,29,30,30,31,31,32,32,33,33,34,34,35,35,36,36,37,37,39,39,40,40,41,41,44,44,45,45,46,46,51,51,52,52],"right_children":[2,4,6,8,10,12,14,16,18,20,22,24,26,28,30,32,34,36,-1,-1,-1,38,40,-1,42,-1,44,46,48,50,52,54,56,58,60,62,64,66,-1,68,70,72,-1,-1,74,76,78,-1,-1,-1,-1,80,82,-1,-1,-1,-1,-1,-1,-1,-1,-1,-1,-1,-1,-1,-1,-1,-1,-1,-1,-1,-1,-1,-1,-1,-1,-1,-1,-1,-1,-1,-1],"split_conditions":[3.6E3,1.069124E0,1.48E3,1.125E3,4.65E1,4.125E2,1.16E2,1.25E0,1.0634055E0,1.55E1,1.25E0,3.159034E-1,1.1E3,1.1078329E0,-2.992E3,1.2E3,9.4E2,6.45E1,-2.267766E-1,1.3547421E-3,6.1248362E-2,4.65E2,1.2E3,1.7604543E-2,9.15E1,5.4353427E-2,8.45E1,1.025E2,1.2E3,1.74E3,4.5E0,1.8612054E-1,1.0604761E0,1.2E3,3.1436658E-1,-5.987E3,1.0925E3,3.0432465E0,-2.2317266E-2,8.252593E0,2.25E0,3.175E2,1.5597828E-1,5.5943257E-1,3.1828344E-1,2.5E-1,2.9780275E-1,1.8892114E-1,7.84235E-3,1.0584229E-1,1.7202042E-1,4.065432E-1,5.5E-1,2.3934136E-1,8.638399E-2,2.8452346E-1,8.416435E-2,6.619083E-1,2.21583E-1,1.1334509E-1,2.9322025E-1,-2.4953027E-1,9.277798E-2,5.914553E-2,2.5290242E-1,2.927045E-1,4.5172247E-1,2.753901E-1,-3.946066E-2,-1.8931285E-1,6.313505E-2,7.986937E-2,1.27963545E-2,1.3715832E-1,2.9939526E-1,-2.4988605E-2,5.511582E-2,1.6269565E-1,8.261455E-2,1.7573509E-1,3.3981913E-1,1.6147402E-1,6.414649E-2],"split_indices":[1,14,4,4,15,0,15,8,14,15,8,14,4,14,11,2,4,15,0,0,0,7,2,0,15,0,15,15,2,4,13,14,14,2,14,11,3,14,0,14,8,0,0,0,14,6,14,0,0,0,0,14,6,0,0,0,0,0,0,0,0,0,0,0,0,0,0,0,0,0,0,0,0,0,0,0,0,0,0,0,0,0,0],"split_type":[0,0,0,0,0,0,0,0,0,0,0,0,0,0,0,0,0,0,0,0,0,0,0,0,0,0,0,0,0,0,0,0,0,0,0,0,0,0,0,0,0,0,0,0,0,0,0,0,0,0,0,0,0,0,0,0,0,0,0,0,0,0,0,0,0,0,0,0,0,0,0,0,0,0,0,0,0,0,0,0,0,0,0],"sum_hessian":[3.84E2,2.25E2,1.59E2,1.3E2,9.5E1,4.7E1,1.12E2,8.5E1,4.5E1,4E0,9.1E1,1.3E1,3.4E1,3.8E1,7.4E1,5.9E1,2.6E1,4.4E1,1E0,1E0,3E0,5.7E1,3.4E1,1E0,1.2E1,2E0,3.2E1,3.1E1,7E0,4.8E1,2.6E1,2.5E1,3.4E1,6E0,2E1,2.5E1,1.9E1,5.6E1,1E0,3.2E1,2E0,2E0,1E1,2E0,3E1,1.1E1,2E1,6E0,1E0,1.5E1,3.3E1,1.5E1,1.1E1,8E0,1.7E1,2.9E1,5E0,3E0,3E0,6E0,1.4E1,1E0,2.4E1,4E0,1.5E1,2.8E1,2.8E1,3.1E1,1E0,1E0,1E0,1E0,1E0,5E0,2.5E1,1E0,1E1,9E0,1.1E1,7E0,8E0,9E0,2E0],"tree_param":{"num_deleted":"0","num_feature":"16","num_nodes":"83","size_leaf_vector":"0"}},{"base_weights":[2.0756614E0,2.2642426E0,1.6793364E0,1.9454546E0,2.988336E0,1.4050952E0,2.065836E0,1.9855603E0,-1.1093744E0,6.2784567E0,2.6726546E0,8.838645E-1,1.5940812E0,1.5031804E0,3.1027248E0,2.0798962E0,6.1371404E-1,1.0683786E0,3.111941E0,1.1257606E0,3.8249737E-1,1.0175865E0,1.682823E0,1.2612585E0,2.2906878E0,1.3335323E0,3.5445123E0,1.4926481E0,2.2699685E0,1.5937887E-1,9.8037577E-1,2.626355E0,-1.0126393E0,4.378955E0,2.2266197E0,7.7787805E-1,1.4122151E0,-7.623482E-2,4.4936824E-1,1.2746581E0,5.0558317E-1,1.7546026E0,8.622925E-1,6.2907743E-1,2.4627767E0,2.3484659E-1,2.8641376E0,4.387624E0,1.8296118E0,1.8241774E0,6.519301E-1,2.3928466E0,1.4065897E0,-3.7122297E-1,3.09683E-1,5.7188404E-1,1.3344034E0,3.1372082E-1,3.5726666E0,-2.7895908E0,-3.6027607E-1,4.994434E0,1.2874397E0,7.568153E-2,2.5825868E0,9.308797E-1,-2.2306776E-1,2.0920777E-1,5.51623E-1,5.677891E-1,1.9351864E0,4.540951E-1,1.6030049E0,-3.5390663E-1,1.0005531E0,2.3295164E0,5.532017E-1],"categories":[],"categories_nodes":[],"categories_segments":[],"categories_sizes":[],"default_left":[true,true,true,true,false,true,true,true,false,false,true,true,true,false,false,true,true,true,true,false,true,true,false,false,true,true,true,true,true,true,false,true,true,true,false,true,false,false,false,false,false,true,true,false,false,true,false,false,true,false,false,false,false,false,false,false,false,false,false,false,false,false,false,false,false,false,false,false,false,false,false,false,false,false,false,false,false],"id":21,"left_children":[1,3,5,7,9,11,13,15,-1,-1,17,19,21,23,25,27,29,31,33,35,37,39,-1,41,43,45,47,49,51,53,55,57,59,61,63,65,-1,-1,67,-1,-1,69,71,-1,-1,73,-1,-1,75,-1,-1,-1,-1,-1,-1,-1,-1,-1,-1,-1,-1,-1,-1,-1,-1,-1,-1,-1,-1,-1,-1,-1,-1,-1,-1,-1,-1],"loss_changes":[2.4972412E1,5.3740967E1,1.0664551E1,2.4500671E1,6.3194336E1,6.27446E0,2.5090027E1,2.2018127E1,0E0,0E0,4.741632E1,2.3588104E0,1.1524963E0,3.778885E0,8.560593E0,1.5363831E1,2.0093837E0,5.7776558E1,5.3065674E1,3.962574E-1,3.1033993E-1,6.7176914E-1,0E0,4.195015E0,4.5233536E-1,7.7356377E0,1.0768417E1,1.1074554E1,9.895569E0,6.73223E-1,2.4919748E-1,2.0763908E1,8.268719E0,3.5430756E1,2.6602737E1,1.5859666E0,0E0,0E0,8.1056476E-2,0E0,0E0,1.473053E0,4.714507E0,0E0,0E0,2.1573515E0,0E0,0E0,2.5398083E0,0E0,0E0,0E0,0E0,0E0,0E0,0E0,0E0,0E0,0E0,0E0,0E0,0E0,0E0,0E0,0E0,0E0,0E0,0E0,0E0,0E0,0E0,0E0,0E0,0E0,0E0,0E0,0E0],"parents":[2147483647,0,0,1,1,2,2,3,3,4,4,5,5,6,6,7,7,10,10,11,11,12,12,13,13,14,14,15,15,16,16,17,17,18,18,19,19,20,20,21,21,23,23,24,24,25,25,26,26,27,27,28,28,29,29,30,30,31,31,32,32,33,33,34,34,35,35,38,38,41,41,42,42,45,45,48,48],"right_children":[2,4,6,8,10,12,14,16,-1,-1,18,20,22,24,26,28,30,32,34,36,38,40,-1,42,44,46,48,50,52,54,56,58,60,62,64,66,-1,-1,68,-1,-1,70,72,-1,-1,74,-1,-1,76,-1,-1,-1,-1,-1,-1,-1,-1,-1,-1,-1,-1,-1,-1,-1,-1,-1,-1,-1,-1,-1,-1,-1,-1,-1,-1,-1,-1],"split_conditions":[9.85E1,1.9640455E0,4.125E2,1.8792404E0,2.3819404E0,1.345E2,1E3,1.55E3,-1.1093744E-1,6.278457E-1,7.1E1,1.685E3,2.5E0,4.3686348E-1,3.7492612E-1,5.65E1,6.85E1,6.25E1,1.5E2,4.1453356E-1,3.6E3,7.5E-1,1.682823E-1,2.9780275E-1,1.08E2,1.4225E3,4.122753E-1,1.25E3,8.5E-1,1.2E3,1.1744797E0,3.55E1,-2.9905E3,1.8E1,3.8045597E0,2.5E2,1.4122151E-1,-7.623482E-3,7.2128787E0,1.2746581E-1,5.0558317E-2,1.1E2,1.16E2,6.290775E-2,2.4627768E-1,9.85E2,2.8641376E-1,4.387624E-1,1.13E2,1.8241774E-1,6.519301E-2,2.3928466E-1,1.4065897E-1,-3.7122298E-2,3.09683E-2,5.7188403E-2,1.3344035E-1,3.137208E-2,3.5726666E-1,-2.789591E-1,-3.6027607E-2,4.9944338E-1,1.2874398E-1,7.568153E-3,2.5825867E-1,9.308797E-2,-2.2306776E-2,2.0920778E-2,5.51623E-2,5.6778908E-2,1.9351864E-1,4.540951E-2,1.603005E-1,-3.5390664E-2,1.00055315E-1,2.3295164E-1,5.532017E-2],"split_indices":[15,14,0,14,14,15,2,4,0,0,15,4,8,14,14,15,15,15,7,14,1,6,0,14,15,4,14,4,6,2,14,15,11,13,14,7,0,0,14,0,0,15,15,0,0,3,0,0,15,0,0,0,0,0,0,0,0,0,0,0,0,0,0,0,0,0,0,0,0,0,0,0,0,0,0,0,0],"split_type":[0,0,0,0,0,0,0,0,0,0,0,0,0,0,0,0,0,0,0,0,0,0,0,0,0,0,0,0,0,0,0,0,0,0,0,0,0,0,0,0,0,0,0,0,0,0,0,0,0,0,0,0,0,0,0,0,0,0,0,0,0,0,0,0,0,0,0,0,0,0,0,0,0,0,0,0,0],"sum_hessian":[3.84E2,2.57E2,1.27E2,1.81E2,7.6E1,7.7E1,5E1,1.79E2,2E0,5E0,7.1E1,2.2E1,5.5E1,3.4E1,1.6E1,1.67E2,1.2E1,1.6E1,5.5E1,1.4E1,8E0,9E0,4.6E1,2.8E1,6E0,4E0,1.2E1,4.3E1,1.24E2,6E0,6E0,9E0,7E0,2.1E1,3.4E1,8E0,6E0,1E0,7E0,5E0,4E0,1.1E1,1.7E1,1E0,5E0,3E0,1E0,7E0,5E0,3E1,1.3E1,1.07E2,1.7E1,1E0,5E0,4E0,2E0,3E0,6E0,1E0,6E0,1.7E1,4E0,5E0,2.9E1,7E0,1E0,3E0,4E0,2E0,9E0,1.2E1,5E0,2E0,1E0,3E0,2E0],"tree_param":{"num_deleted":"0","num_feature":"16","num_nodes":"77","size_leaf_vector":"0"}},{"base_weights":[1.8804764E0,1.6524898E0,2.1651227E0,1.1942191E0,2.152557E0,1.2159172E0,2.45225E0,1.2441518E0,-2.2740202E0,2.5174074E0,1.4036012E0,1.3424319E0,2.5417638E-1,2.3455715E-1,2.5786078E0,1.1477559E0,2.5674393E0,2.0115335E0,3.4197028E0,5.914098E-1,1.579254E0,2.83148E0,1.171562E0,1.3650562E0,-2.6501112E0,1.3445221E-1,4.6764588E-1,2.068457E0,2.9863E0,5.134665E-1,1.2759563E0,4.350952E0,1.4206648E-1,2.1735635E0,-1.0354162E0,5.755252E0,2.4512029E0,1.1240234E0,-2.2220969E-1,1.8689553E0,1.0130975E0,1.382103E-1,1.3047352E0,1.1533022E-1,2.1597633E0,6.351868E-2,2.8002667E-1,2.2955232E0,6.0237837E-1,3.424575E0,1.2970784E0,-7.314097E-2,1.107388E0,1.8903033E0,9.826598E-1,9.443207E-1,5.1717224E0,-1.0719557E0,9.040591E-1,1.312272E0,2.492419E0,-1.0200186E0,2.7153935E0,-4.4447327E-1,2.2229052E-1,4.6090254E-1,2.0161555E0,-1.0732365E-1,2.264247E-1,1.3819902E0,4.5708036E-1,-1.301775E-1,3.0317283E-1,8.916406E-2,-3.2354116E-2,2.4240916E0,2.4310517E-1,8.578787E-1,3.3164844E-1,4.8398523E0,2.9143777E0,-2.434888E0,1.737568E0],"categories":[],"categories_nodes":[],"categories_segments":[],"categories_sizes":[],"default_left":[true,false,true,false,true,true,true,true,false,true,true,true,false,true,true,true,true,true,false,true,true,false,true,false,false,true,false,false,true,true,true,true,true,true,false,false,false,false,true,false,false,true,true,false,false,true,false,true,true,true,true,false,false,false,false,false,false,false,false,false,false,false,false,false,false,false,false,false,false,false,false,false,false,false,false,false,false,false,false,false,false,false,false],"id":22,"left_children":[1,3,5,7,9,11,13,15,-1,17,19,21,23,25,27,29,31,33,35,37,39,-1,41,43,-1,45,-1,47,49,51,53,55,57,59,-1,-1,61,-1,63,65,-1,67,69,71,-1,73,-1,75,77,79,81,-1,-1,-1,-1,-1,-1,-1,-1,-1,-1,-1,-1,-1,-1,-1,-1,-1,-1,-1,-1,-1,-1,-1,-1,-1,-1,-1,-1,-1,-1,-1,-1],"loss_changes":[2.1406982E1,4.7387573E1,4.280548E1,2.2917923E1,2.4612E1,4.647434E0,3.526367E1,1.1722565E1,0E0,2.4159607E1,4.2019043E0,5.842354E0,2.2975437E1,1.2379065E-1,1.8989136E1,8.208298E0,2.9661663E1,2.4960617E1,3.7918213E1,3.7165277E0,2.8630447E0,0E0,4.4985733E0,4.7167454E0,0E0,5.449584E-2,0E0,1.7592361E1,4.368042E1,7.048972E0,1.4359192E1,6.3004837E0,4.669415E0,8.812881E0,0E0,0E0,1.9276909E1,0E0,4.9398702E-1,2.801525E0,0E0,1.3259888E-1,1.3328819E0,1.778167E-1,0E0,1.7636994E-2,0E0,1.2340607E1,3.380301E-1,2.2720459E1,2.8889166E1,0E0,0E0,0E0,0E0,0E0,0E0,0E0,0E0,0E0,0E0,0E0,0E0,0E0,0E0,0E0,0E0,0E0,0E0,0E0,0E0,0E0,0E0,0E0,0E0,0E0,0E0,0E0,0E0,0E0,0E0,0E0,0E0],"parents":[2147483647,0,0,1,1,2,2,3,3,4,4,5,5,6,6,7,7,9,9,10,10,11,11,12,12,13,13,14,14,15,15,16,16,17,17,18,18,19,19,20,20,22,22,23,23,25,25,27,27,28,28,29,29,30,30,31,31,32,32,33,33,36,36,38,38,39,39,41,41,42,42,43,43,45,45,47,47,48,48,49,49,50,50],"right_children":[2,4,6,8,10,12,14,16,-1,18,20,22,24,26,28,30,32,34,36,38,40,-1,42,44,-1,46,-1,48,50,52,54,56,58,60,-1,-1,62,-1,64,66,-1,68,70,72,-1,74,-1,76,78,80,82,-1,-1,-1,-1,-1,-1,-1,-1,-1,-1,-1,-1,-1,-1,-1,-1,-1,-1,-1,-1,-1,-1,-1,-1,-1,-1,-1,-1,-1,-1,-1,-1],"split_conditions":[1E3,1.069124E0,-2.9905E3,1.0634055E0,5.9069524E0,1.25E0,4.6E1,1.45E1,-2.2740202E-1,1.9640455E0,8.25E1,8E1,3.1105719E0,3.95E1,7.95E1,6.1E1,8.625E2,1.8792404E0,2.3819404E0,1.55E3,1.15E1,2.8314802E-1,1.395E2,2.8548913E0,-2.6501113E-1,3.2256799E0,4.676459E-2,1.7980595E1,1.725E3,1.5E-1,7.55E1,8.55E2,3E1,2.4E2,-1.0354163E-1,5.755252E-1,2.6761665E0,1.1240234E-1,2.5E0,6.159436E0,1.01309754E-1,3.6E3,7.5E-1,2.8090343E0,2.1597634E-1,3.25E1,2.8002668E-2,2.1E1,7.25E2,8.5E1,3.6E3,-7.314097E-3,1.1073881E-1,1.8903033E-1,9.826598E-2,9.443207E-2,5.171723E-1,-1.0719557E-1,9.040591E-2,1.312272E-1,2.492419E-1,-1.0200186E-1,2.7153936E-1,-4.444733E-2,2.2229051E-2,4.6090256E-2,2.0161556E-1,-1.0732365E-2,2.2642469E-2,1.3819902E-1,4.5708038E-2,-1.301775E-2,3.0317282E-2,8.916407E-3,-3.2354116E-3,2.4240915E-1,2.4310518E-2,8.578787E-2,3.3164844E-2,4.8398525E-1,2.9143777E-1,-2.4348879E-1,1.7375681E-1],"split_indices":[2,14,11,14,14,6,15,13,0,14,15,15,14,15,15,15,3,14,14,4,13,0,15,14,0,14,0,14,4,6,15,4,13,0,0,0,14,0,8,14,0,1,6,14,0,15,0,13,3,15,1,0,0,0,0,0,0,0,0,0,0,0,0,0,0,0,0,0,0,0,0,0,0,0,0,0,0,0,0,0,0,0,0],"split_type":[0,0,0,0,0,0,0,0,0,0,0,0,0,0,0,0,0,0,0,0,0,0,0,0,0,0,0,0,0,0,0,0,0,0,0,0,0,0,0,0,0,0,0,0,0,0,0,0,0,0,0,0,0,0,0,0,0,0,0,0,0,0,0,0,0,0,0,0,0,0,0,0,0,0,0,0,0,0,0,0,0,0,0],"sum_hessian":[3.84E2,2.17E2,1.67E2,1.15E2,1.02E2,4E1,1.27E2,1.14E2,1E0,6.7E1,3.5E1,3.5E1,5E0,7E0,1.2E2,1.08E2,6E0,4.5E1,2.2E1,7E0,2.8E1,2E0,3.3E1,4E0,1E0,6E0,1E0,5.6E1,6.4E1,1.9E1,8.9E1,3E0,3E0,4.3E1,2E0,5E0,1.7E1,4E0,3E0,1.7E1,1.1E1,4E0,2.9E1,2E0,2E0,5E0,1E0,4.8E1,8E0,5E1,1.4E1,1E1,9E0,2.7E1,6.2E1,1E0,2E0,1E0,2E0,1.3E1,3E1,1E0,1.6E1,2E0,1E0,2E0,1.5E1,1E0,3E0,2.6E1,3E0,1E0,1E0,4E0,1E0,4.5E1,3E0,3E0,5E0,1.1E1,3.9E1,1E0,1.3E1],"tree_param":{"num_deleted":"0","num_feature":"16","num_nodes":"83","size_leaf_vector":"0"}},{"base_weights":[1.7023985E0,1.4974211E0,1.9582478E0,1.081333E0,1.9514872E0,1.1052337E0,2.21618E0,1.1283067E0,-2.1603193E0,2.2806957E0,1.2754409E0,1.2214935E0,2.2346933E-1,2.2115749E-1,2.3297668E0,8.101636E-1,1.4606416E0,1.8164E0,3.1101263E0,5.435419E-1,1.4333633E0,2.6427147E0,1.0601653E0,1.2752055E0,-2.5176058E0,1.2581894E-1,4.442637E-1,1.8872924E0,2.720391E0,3.1113768E-1,1.0460023E0,3.0084984E0,1.0498179E0,1.9648538E0,-9.6638805E-1,5.2756476E0,2.215501E0,1.0341018E0,-2.0554352E-1,1.6958208E0,9.202302E-1,1.2677154E-1,1.180392E0,1.0956367E-1,2.0157788E0,5.8113653E-2,2.660253E-1,2.0815256E0,5.5535746E-1,6.2538943E0,2.4347231E0,-1.5160112E0,4.7829568E-1,4.738911E-1,1.2947005E0,3.9303885E0,4.1259396E-1,-7.3812804E-3,1.1821523E0,1.7740163E0,3.9816277E0,-9.69018E-1,2.4598267E0,1.2650667E0,4.5843634E-1,-4.1484198E-1,2.1117592E-1,4.3017516E-1,1.8271406E0,-1.0195732E-1,2.0944309E-1,8.5578734E-1,1.4479443E0,-1.2366867E-1,2.8801417E-1,8.203097E-2,-3.0736446E-2,1.5791899E0,2.6947472E0,7.9353786E-1,3.0401096E-1,2.8046186E0,1.1627219E0],"categories":[],"categories_nodes":[],"categories_segments":[],"categories_sizes":[],"default_left":[true,false,true,false,true,true,true,true,false,true,true,true,false,true,true,false,true,true,false,true,true,false,true,false,false,true,false,false,true,true,true,false,true,true,false,false,false,true,true,false,false,true,true,false,false,true,false,true,true,false,true,false,false,false,false,false,false,false,false,false,false,false,false,false,false,false,false,false,false,false,false,false,false,false,false,false,false,false,false,false,false,false,false],"id":23,"left_children":[1,3,5,7,9,11,13,15,-1,17,19,21,23,25,27,29,31,33,35,37,39,-1,41,43,-1,45,-1,47,49,51,53,55,57,59,-1,-1,61,63,65,67,-1,69,71,73,-1,75,-1,77,79,-1,81,-1,-1,-1,-1,-1,-1,-1,-1,-1,-1,-1,-1,-1,-1,-1,-1,-1,-1,-1,-1,-1,-1,-1,-1,-1,-1,-1,-1,-1,-1,-1,-1],"loss_changes":[1.7258423E1,3.9076843E1,3.4513977E1,2.010109E1,2.0014801E1,3.9300995E0,2.84906E1,1.0975586E1,0E0,2.0537628E1,3.3819084E0,5.4524727E0,2.0507792E1,1.1426821E-1,1.5779602E1,6.853615E0,3.1815918E1,2.09021E1,3.2870377E1,3.1523232E0,2.345047E0,0E0,3.6658058E0,4.09536E0,0E0,5.0989285E-2,0E0,1.4366364E1,4.735681E1,7.138975E0,5.2200584E0,2.4702866E1,6.3044014E0,9.8710785E0,0E0,0E0,1.6388695E1,8.48403E-2,4.364796E-1,2.2056847E0,0E0,1.159011E-1,1.3663292E0,1.6047962E-1,0E0,1.5271675E-2,0E0,1.1762726E1,2.9754806E-1,0E0,2.4498962E1,0E0,0E0,0E0,0E0,0E0,0E0,0E0,0E0,0E0,0E0,0E0,0E0,0E0,0E0,0E0,0E0,0E0,0E0,0E0,0E0,0E0,0E0,0E0,0E0,0E0,0E0,0E0,0E0,0E0,0E0,0E0,0E0],"parents":[2147483647,0,0,1,1,2,2,3,3,4,4,5,5,6,6,7,7,9,9,10,10,11,11,12,12,13,13,14,14,15,15,16,16,17,17,18,18,19,19,20,20,22,22,23,23,25,25,27,27,28,28,29,29,30,30,31,31,32,32,33,33,36,36,37,37,38,38,39,39,41,41,42,42,43,43,45,45,47,47,48,48,50,50],"right_children":[2,4,6,8,10,12,14,16,-1,18,20,22,24,26,28,30,32,34,36,38,40,-1,42,44,-1,46,-1,48,50,52,54,56,58,60,-1,-1,62,64,66,68,-1,70,72,74,-1,76,-1,78,80,-1,82,-1,-1,-1,-1,-1,-1,-1,-1,-1,-1,-1,-1,-1,-1,-1,-1,-1,-1,-1,-1,-1,-1,-1,-1,-1,-1,-1,-1,-1,-1,-1,-1],"split_conditions":[1E3,1.069124E0,-2.9905E3,1.0634055E0,5.9069524E0,1.25E0,4.6E1,4.125E2,-2.1603194E-1,1.9640455E0,8.25E1,8E1,3.1105719E0,3.95E1,8.05E1,3.159034E-1,7.55E1,1.8792404E0,2.3819404E0,1.55E3,1.15E1,2.6427147E-1,1.395E2,2.8548913E0,-2.5176057E-1,3.2256799E0,4.442637E-2,1.7980595E1,8.25E1,8.65E2,6.45E1,3.1860423E-1,8.4E1,1.6368766E0,-9.6638806E-2,5.2756476E-1,2.6761665E0,-2.9925E3,2.5E0,6.159436E0,9.202302E-2,3.6E3,1.495E2,2.8090343E0,2.0157789E-1,3.25E1,2.660253E-2,3.5E-1,7.25E2,6.2538946E-1,1.725E3,-1.5160112E-1,4.782957E-2,4.7389112E-2,1.2947005E-1,3.9303884E-1,4.1259397E-2,-7.3812803E-4,1.18215226E-1,1.7740163E-1,3.9816278E-1,-9.69018E-2,2.4598268E-1,1.2650667E-1,4.5843635E-2,-4.14842E-2,2.1117592E-2,4.3017518E-2,1.8271406E-1,-1.0195732E-2,2.094431E-2,8.557873E-2,1.4479443E-1,-1.2366868E-2,2.8801417E-2,8.203097E-3,-3.0736446E-3,1.5791899E-1,2.6947471E-1,7.935379E-2,3.0401096E-2,2.8046188E-1,1.1627219E-1],"split_indices":[2,14,11,14,14,6,15,0,0,14,15,15,14,15,15,14,15,14,14,4,13,0,15,14,0,14,0,14,15,4,15,14,15,14,0,0,14,11,8,14,0,1,15,14,0,15,0,6,3,0,4,0,0,0,0,0,0,0,0,0,0,0,0,0,0,0,0,0,0,0,0,0,0,0,0,0,0,0,0,0,0,0,0],"split_type":[0,0,0,0,0,0,0,0,0,0,0,0,0,0,0,0,0,0,0,0,0,0,0,0,0,0,0,0,0,0,0,0,0,0,0,0,0,0,0,0,0,0,0,0,0,0,0,0,0,0,0,0,0,0,0,0,0,0,0,0,0,0,0,0,0,0,0,0,0,0,0,0,0,0,0,0,0,0,0,0,0,0,0],"sum_hessian":[3.84E2,2.17E2,1.67E2,1.15E2,1.02E2,4E1,1.27E2,1.14E2,1E0,6.7E1,3.5E1,3.5E1,5E0,7E0,1.2E2,6E1,5.4E1,4.5E1,2.2E1,7E0,2.8E1,2E0,3.3E1,4E0,1E0,6E0,1E0,5.9E1,6.1E1,2E1,4E1,1E1,4.4E1,4.3E1,2E0,5E0,1.7E1,4E0,3E0,1.7E1,1.1E1,4E0,2.9E1,2E0,2E0,5E0,1E0,5.1E1,8E0,3E0,5.8E1,1E0,1.9E1,1.3E1,2.7E1,7E0,3E0,5E0,3.9E1,4.1E1,2E0,1E0,1.6E1,2E0,2E0,2E0,1E0,2E0,1.5E1,1E0,3E0,1.5E1,1.4E1,1E0,1E0,4E0,1E0,3E1,2.1E1,3E0,5E0,4.4E1,1.4E1],"tree_param":{"num_deleted":"0","num_feature":"16","num_nodes":"83","size_leaf_vector":"0"}},{"base_weights":[1.542915E0,1.714199E0,1.2913332E0,1.4231911E0,2.207881E0,1.0034513E0,1.686143E0,1.752811E0,1.0740753E0,3.7458732E0,1.9669523E0,5.97901E-1,1.1397493E0,1.2179861E0,2.5084372E0,1.4738845E0,2.418272E0,7.0841414E-1,1.8381906E0,1.6885345E0,4.83601E0,4.0559268E-1,2.298487E0,6.956042E-1,-3.830255E-1,1.0175358E0,1.3944064E0,1.0182269E0,2.961021E0,2.6915915E0,3.9021048E-1,2.170477E0,1.0951668E0,3.9892592E0,1.4600446E0,5.352609E-1,2.1943715E0,2.0446255E0,3.464675E-1,3.7161858E0,-9.019616E-1,-2.3712797E0,8.016044E-1,3.2176168E0,1.5963554E0,3.7960187E-1,8.9420575E-1,-4.7090197E-1,-1.03636265E-1,1.0980041E0,3.5487747E-1,2.678276E0,1.1858724E0,4.4046873E-1,1.2707407E0,4.0069857E0,1.2767042E0,1.4884542E0,3.073616E0,5.2820873E-1,5.710697E-2,1.334343E-1,2.282454E0,2.6798698E-1,1.5320565E0,5.4112706E0,1.5699332E0,3.5000324E-2,1.8455112E0,7.368415E-1,7.4751037E-3,7.9492253E-1,2.4081986E0,-2.5145087E-1,1.0701113E0,-7.942473E-1,1.1639636E0,1.8327289E0,4.565185E0,-5.46591E-1,1.8813047E0,6.6581637E-1,3.0120373E-2,4.6794575E-2,1.0315415E0,1.1299849E0,2.736114E-1,-8.529027E-3,5.0194585E-1,1.2181704E0,3.022542E-1,7.618778E-1,2.8355008E-1,1.0473744E0,1.7912151E0,2.8061914E0,-2.0139647E-1],"categories":[],"categories_nodes":[],"categories_segments":[],"categories_sizes":[],"default_left":[true,true,true,true,false,false,true,true,true,false,false,true,false,true,true,true,true,true,true,false,false,true,true,false,true,true,false,true,false,false,true,true,true,true,true,true,false,true,true,false,false,false,false,true,false,false,true,false,false,false,true,false,true,false,false,false,false,false,false,false,false,false,false,false,false,false,false,false,false,false,false,false,false,false,false,false,false,false,false,false,false,false,false,false,false,false,false,false,false,false,false,false,false,false,false,false,false],"id":24,"left_children":[1,3,5,7,9,11,13,15,17,19,21,23,25,27,29,31,33,35,37,39,-1,41,43,45,47,49,51,53,55,57,59,61,63,65,67,69,-1,71,73,-1,-1,-1,75,77,79,81,83,-1,-1,85,87,-1,89,91,93,-1,-1,95,-1,-1,-1,-1,-1,-1,-1,-1,-1,-1,-1,-1,-1,-1,-1,-1,-1,-1,-1,-1,-1,-1,-1,-1,-1,-1,-1,-1,-1,-1,-1,-1,-1,-1,-1,-1,-1,-1,-1],"loss_changes":[1.437677E1,2.932611E1,1.6493408E1,1.4803284E1,2.3016846E1,4.5697327E0,2.235228E1,9.985626E0,1.9094536E1,1.4262039E1,3.6855835E1,2.7582664E0,7.5971985E-1,1.2305252E1,7.8728485E0,1.1868805E1,2.4282776E1,1.1947651E1,6.3743134E0,2.9614971E1,0E0,1.7296265E1,3.3584564E1,1.1667633E0,2.4852693E-2,2.329815E0,2.1785164E0,5.4218483E0,1.9312096E0,5.0772552E0,1.077387E-1,3.8012695E0,1.2960724E1,1.558683E1,7.6257057E0,4.9948874E0,0E0,7.1728363E0,1.9998001E0,0E0,0E0,0E0,8.442003E0,3.8289E1,2.3011017E1,1.0802387E0,1.5810461E0,0E0,0E0,8.772354E-1,3.7840044E-1,0E0,1.7404366E-1,4.9006057E-1,1.3791084E0,0E0,0E0,1.6152613E1,0E0,0E0,0E0,0E0,0E0,0E0,0E0,0E0,0E0,0E0,0E0,0E0,0E0,0E0,0E0,0E0,0E0,0E0,0E0,0E0,0E0,0E0,0E0,0E0,0E0,0E0,0E0,0E0,0E0,0E0,0E0,0E0,0E0,0E0,0E0,0E0,0E0,0E0,0E0],"parents":[2147483647,0,0,1,1,2,2,3,3,4,4,5,5,6,6,7,7,8,8,9,9,10,10,11,11,12,12,13,13,14,14,15,15,16,16,17,17,18,18,19,19,21,21,22,22,23,23,24,24,25,25,26,26,27,27,28,28,29,29,30,30,31,31,32,32,33,33,34,34,35,35,37,37,38,38,42,42,43,43,44,44,45,45,46,46,49,49,50,50,52,52,53,53,54,54,57,57],"right_children":[2,4,6,8,10,12,14,16,18,20,22,24,26,28,30,32,34,36,38,40,-1,42,44,46,48,50,52,54,56,58,60,62,64,66,68,70,-1,72,74,-1,-1,-1,76,78,80,82,84,-1,-1,86,88,-1,90,92,94,-1,-1,96,-1,-1,-1,-1,-1,-1,-1,-1,-1,-1,-1,-1,-1,-1,-1,-1,-1,-1,-1,-1,-1,-1,-1,-1,-1,-1,-1,-1,-1,-1,-1,-1,-1,-1,-1,-1,-1,-1,-1],"split_conditions":[3.6E3,1.6368766E0,4.125E2,9.75E2,2.3819404E0,1.1078329E0,1E3,1.25E0,6.75E1,1.9640455E0,3.0432465E0,5E-1,8.938835E0,1.01E3,4.3443102E-1,6.125E2,8.625E2,5E-1,1.3082955E0,1.8792404E0,4.83601E-1,9.5E2,1.5E2,3.2751065E-1,1.55E3,7.5E-1,9.027243E0,1.065E2,3.1304526E-1,3.7492612E-1,9.35E2,3.5E2,1.2E3,1.2E3,1.2E3,8.8618886E-1,2.1943715E-1,1.075E3,7.25E0,3.716186E-1,-9.019616E-2,-2.3712797E-1,2.6338696E0,7.95E1,3.8271143E0,2.7619204E-1,9.3E1,-4.70902E-2,-1.0363626E-2,8.684663E0,1.415E2,2.678276E-1,3.5E0,2.8315264E-1,4.3686348E-1,4.0069857E-1,1.2767042E-1,3.3305186E-1,3.073616E-1,5.2820873E-2,5.7106973E-3,1.334343E-2,2.282454E-1,2.6798699E-2,1.5320565E-1,5.411271E-1,1.5699331E-1,3.5000325E-3,1.8455112E-1,7.368415E-2,7.475104E-4,7.9492256E-2,2.4081986E-1,-2.5145087E-2,1.0701113E-1,-7.942473E-2,1.1639636E-1,1.8327288E-1,4.565185E-1,-5.46591E-2,1.8813048E-1,6.658164E-2,3.0120374E-3,4.6794578E-3,1.03154145E-1,1.12998486E-1,2.736114E-2,-8.529027E-4,5.0194588E-2,1.21817045E-1,3.022542E-2,7.618778E-2,2.8355008E-2,1.0473744E-1,1.7912151E-1,2.8061914E-1,-2.0139648E-2],"split_indices":[1,14,0,4,14,14,2,8,15,14,14,9,14,3,14,3,3,12,14,14,0,3,7,14,4,6,14,15,14,14,3,5,2,2,2,14,0,4,12,0,0,0,14,15,14,14,15,0,0,14,15,0,8,14,14,0,0,14,0,0,0,0,0,0,0,0,0,0,0,0,0,0,0,0,0,0,0,0,0,0,0,0,0,0,0,0,0,0,0,0,0,0,0,0,0,0,0],"split_type":[0,0,0,0,0,0,0,0,0,0,0,0,0,0,0,0,0,0,0,0,0,0,0,0,0,0,0,0,0,0,0,0,0,0,0,0,0,0,0,0,0,0,0,0,0,0,0,0,0,0,0,0,0,0,0,0,0,0,0,0,0,0,0,0,0,0,0,0,0,0,0,0,0,0,0,0,0,0,0,0,0,0,0,0,0,0,0,0,0,0,0,0,0,0,0,0,0],"sum_hessian":[3.84E2,2.25E2,1.59E2,1.44E2,8.1E1,9.4E1,6.5E1,7.2E1,7.2E1,9E0,7.2E1,2.5E1,6.9E1,4.3E1,2.2E1,5.3E1,1.9E1,5E1,2.2E1,4E0,5E0,1.3E1,5.9E1,2.3E1,2E0,5E1,1.9E1,4E1,3E0,2E1,2E0,1.7E1,3.6E1,6E0,1.3E1,4.6E1,4E0,1.9E1,3E0,2E0,2E0,1E0,1.2E1,2.4E1,3.5E1,1E1,1.3E1,1E0,1E0,4.4E1,6E0,1E0,1.8E1,1.3E1,2.7E1,1E0,2E0,6E0,1.4E1,1E0,1E0,1E0,1.6E1,1.3E1,2.3E1,3E0,3E0,3E0,1E1,3.3E1,1.3E1,5E0,1.4E1,2E0,1E0,2E0,1E1,1.3E1,1.1E1,4E0,3.1E1,5E0,5E0,2E0,1.1E1,4.2E1,2E0,2E0,4E0,1.7E1,1E0,3E0,1E1,2.1E1,6E0,3E0,3E0],"tree_param":{"num_deleted":"0","num_feature":"16","num_nodes":"97","size_leaf_vector":"0"}},{"base_weights":[1.4032068E0,1.6594307E0,1.2565969E0,3.898597E0,1.5627747E0,9.2335916E-1,1.5136673E0,7.700814E-1,1.6962595E0,7.9397106E-1,1.2179744E0,2.8732548E0,1.3743806E0,1.3293142E0,1.4084114E-1,2.6796412E-1,1.7880529E0,4.8825338E-1,1.0589477E0,1.4326748E0,7.407511E-1,1.5902583E-1,1.4540789E0,6.529002E-1,-3.9469147E-1,9.7881955E-1,-1.3212426E-1,3.3057003E0,1.6473535E0,-4.3997622E-1,5.778274E-1,8.535322E-1,2.7970114E0,1.4823061E0,2.2002363E-1,8.2601964E-2,3.8520837E-1,9.00032E-1,1.7097309E0,6.954193E-3,7.806986E-1,3.3088207E-1,-6.059826E-1,4.2964125E-1,-3.3040562E-1,4.0539134E-1,1.7374443E0,-1.45361E0,3.8243833E-1,1.0048224E0,4.1994232E-1,1.2039621E0,5.5740875E-1,3.8066368E0,1.1915907E0,-6.957388E-2,1.142805E-1,9.974439E-1,1.8659592E-2,1.276464E0,2.3332813E0],"categories":[],"categories_nodes":[],"categories_segments":[],"categories_sizes":[],"default_left":[true,true,true,false,true,false,false,true,false,true,true,false,true,false,true,false,true,true,true,true,false,true,true,true,false,false,true,false,false,false,true,false,false,false,false,true,false,true,true,false,false,false,false,false,false,false,false,false,false,false,false,false,false,false,false,false,false,false,false,false,false],"id":25,"left_children":[1,3,5,-1,7,9,11,13,15,17,19,-1,21,-1,23,25,27,29,31,33,-1,35,37,39,41,-1,43,-1,45,47,49,51,53,-1,-1,55,-1,57,59,-1,-1,-1,-1,-1,-1,-1,-1,-1,-1,-1,-1,-1,-1,-1,-1,-1,-1,-1,-1,-1,-1],"loss_changes":[1.2377258E1,2.3558167E1,1.9933075E1,0E0,1.2766785E1,3.2642517E0,2.237387E1,7.202506E0,1.433609E1,5.963608E0,2.2174644E0,0E0,1.2167084E1,0E0,3.2741618E0,2.4045658E0,1.718872E1,3.4968948E0,1.2607716E1,9.3775177E-1,0E0,1.2375271E-1,1.5458359E1,4.8987603E-1,1.1203523E0,0E0,8.102817E-1,0E0,1.0372681E1,3.8904247E0,2.0050135E0,3.3759499E0,1.9475403E0,0E0,0E0,4.6516605E-2,0E0,3.4156342E0,1.8904938E1,0E0,0E0,0E0,0E0,0E0,0E0,0E0,0E0,0E0,0E0,0E0,0E0,0E0,0E0,0E0,0E0,0E0,0E0,0E0,0E0,0E0,0E0],"parents":[2147483647,0,0,1,1,2,2,4,4,5,5,6,6,7,7,8,8,9,9,10,10,12,12,14,14,15,15,16,16,17,17,18,18,19,19,21,21,22,22,23,23,24,24,26,26,28,28,29,29,30,30,31,31,32,32,35,35,37,37,38,38],"right_children":[2,4,6,-1,8,10,12,14,16,18,20,-1,22,-1,24,26,28,30,32,34,-1,36,38,40,42,-1,44,-1,46,48,50,52,54,-1,-1,56,-1,58,60,-1,-1,-1,-1,-1,-1,-1,-1,-1,-1,-1,-1,-1,-1,-1,-1,-1,-1,-1,-1,-1,-1],"split_conditions":[1.5E2,1.5E2,1E3,3.898597E-1,6.1E1,1.2449611E0,3.3496606E-1,1.325E3,2.3932794E-1,4.125E2,1.15E1,2.8732547E-1,4.6E1,1.3293143E-1,5.45E1,1.9518569E-1,2.4802557E-1,8.65E2,1.01E3,8.5E0,7.407511E-2,3.95E1,-2.9905E3,3E1,2.426436E-1,9.788196E-2,7.65E2,3.3057004E-1,3.1140828E-1,3.6288822E-1,1.225E3,2.9780275E-1,3.1304526E-1,1.4823061E-1,2.2002364E-2,1.55E1,3.852084E-2,1.25E0,3.0432465E0,6.954193E-4,7.806986E-2,3.3088207E-2,-6.059826E-2,4.2964127E-2,-3.3040565E-2,4.0539134E-2,1.7374443E-1,-1.4536099E-1,3.8243834E-2,1.0048224E-1,4.1994233E-2,1.2039621E-1,5.5740874E-2,3.806637E-1,1.19159065E-1,-6.957388E-3,1.142805E-2,9.9744394E-2,1.8659591E-3,1.276464E-1,2.3332813E-1],"split_indices":[5,7,2,0,15,14,14,4,14,0,13,0,15,0,15,14,14,4,3,12,0,15,11,15,14,0,3,0,14,14,4,14,14,0,0,15,0,6,14,0,0,0,0,0,0,0,0,0,0,0,0,0,0,0,0,0,0,0,0,0,0],"split_type":[0,0,0,0,0,0,0,0,0,0,0,0,0,0,0,0,0,0,0,0,0,0,0,0,0,0,0,0,0,0,0,0,0,0,0,0,0,0,0,0,0,0,0,0,0,0,0,0,0,0,0,0,0,0,0,0,0,0,0,0,0],"sum_hessian":[3.84E2,1.36E2,2.48E2,4E0,1.32E2,1.1E2,1.38E2,2E1,1.12E2,7.9E1,3.1E1,1.1E1,1.27E2,1E1,1E1,7E0,1.05E2,3.8E1,4.1E1,2E1,1.1E1,8E0,1.19E2,5E0,5E0,2E0,5E0,7E0,9.8E1,3E0,3.5E1,3.8E1,3E0,1.9E1,1E0,7E0,1E0,3.9E1,8E1,1E0,4E0,1E0,4E0,1E0,4E0,7E0,9.1E1,1E0,2E0,8E0,2.7E1,1.6E1,2.2E1,1E0,2E0,1E0,6E0,3.5E1,4E0,4.9E1,3.1E1],"tree_param":{"num_deleted":"0","num_feature":"16","num_nodes":"61","size_leaf_vector":"0"}},{"base_weights":[1.2706141E0,1.3502673E0,8.500064E-1,1.1671815E0,1.8092531E0,-2.0820475E-1,9.630663E-1,9.5768714E-1,1.5484833E0,2.2303557E0,1.0143076E0,-2.3165388E0,5.2927405E-1,7.2056973E-1,1.1653774E0,8.837286E-1,2.0428314E0,